int W1[32][27]={
-68,-31,-47,-9,16,0,16,36,4,-15,-5,-6,-3,0,0,-1,4,-1,67,51,44,1,-7,-4,-24,-28,-10,
33,30,21,-29,-31,-26,6,0,0,-5,0,-7,-46,-44,-41,31,26,29,-11,-4,-7,-1,14,11,9,22,17,
21,-42,-34,7,-6,15,-6,9,24,14,-27,-20,-9,-2,41,-21,10,38,5,-28,-33,2,14,30,-12,12,19,
8,5,22,22,18,23,18,10,14,5,0,9,25,19,5,30,18,13,-10,-31,-18,-13,-40,-39,-18,-28,-36,
32,16,24,41,7,20,11,-26,-8,23,25,28,6,-28,-14,-21,-42,-20,-5,-1,5,-30,-27,-19,-3,-16,1,
7,10,-1,44,34,18,34,18,1,-30,-11,-10,-41,-16,-7,-24,-10,-7,7,12,29,-40,-22,13,-28,-6,20,
-1,3,14,3,-14,-4,-14,-43,-36,47,-1,20,48,11,33,27,-21,-19,-15,-34,1,19,1,34,-3,-23,-9,
-1,14,2,3,6,6,-2,-1,-11,33,35,30,-40,-32,-39,-3,0,1,0,19,9,-36,-42,-42,29,30,32,
1,-7,5,-5,1,4,21,36,31,-4,-18,-20,-32,-50,-45,-17,-10,-19,24,41,33,0,-3,-16,16,23,15,
-25,0,-14,-45,-17,-32,-43,-11,-37,17,37,10,24,43,16,25,48,20,-6,0,-11,4,4,-2,-3,0,-4,
-5,0,7,-20,-38,-26,-14,-15,-8,-24,-36,-17,11,-32,-13,21,-12,-1,26,5,25,50,24,28,31,4,7,
34,26,12,29,36,26,-3,8,5,-10,-11,-14,-20,-16,-16,-22,-22,-19,-14,-18,-23,-9,-18,-34,22,26,5,
10,-23,8,10,-27,-1,12,-18,20,31,-26,2,16,-47,-35,14,-8,25,11,-29,9,36,-10,30,-1,-39,-1,
1,-2,-7,-14,-11,-5,14,16,10,-22,-25,-21,-6,-8,0,29,27,30,29,21,30,18,18,11,-43,-50,-32,
21,5,7,35,28,31,18,-18,0,33,29,21,18,8,12,-16,-35,-19,1,-3,-3,-25,-20,-13,-22,-38,-20,
22,25,17,6,-10,-12,-18,-40,-52,15,37,40,7,-2,6,-27,-30,-39,-2,10,24,-6,6,6,-10,-12,-17,
34,4,-20,20,9,-2,21,8,7,10,-28,1,-2,-12,26,12,-11,8,4,-37,3,-35,-53,21,-35,-46,31,
-13,-10,-10,31,28,25,-10,-10,-13,-23,-18,-15,29,28,23,-19,-15,-19,-22,-10,-13,27,29,26,-15,-9,-11,
1,-16,-5,-3,-8,30,4,-16,4,-22,-1,34,-42,7,61,-23,2,39,-30,1,25,-27,0,51,-20,-6,21,
5,13,9,-19,-14,9,19,-25,-23,-45,9,26,-61,-1,40,-24,-12,0,-11,25,21,-14,16,34,3,-17,-4,
3,-19,-2,36,25,29,30,19,12,-27,-38,-25,7,-15,0,39,29,20,-17,-14,-10,-24,-20,-25,4,4,3,
13,0,23,7,-10,26,-2,-34,-7,19,-1,34,13,-11,28,-15,-43,-18,28,8,27,18,-7,32,-12,-43,-21,
18,-17,-4,16,-18,-9,7,-7,6,-7,-37,-31,15,-14,-2,20,19,28,-24,-42,-42,21,-3,15,25,21,28,
-20,4,0,-48,-20,-16,-36,-10,6,-10,-16,-14,15,2,8,28,11,38,35,4,8,45,18,27,28,-23,9,
-11,-8,-10,-16,-15,-23,34,31,25,25,23,24,-14,-11,-11,-15,-9,-14,-3,2,13,23,27,28,-30,-26,-28,
-25,9,14,-26,18,27,-59,-12,12,8,11,-9,20,28,23,-13,-2,8,12,-23,-47,35,8,-7,19,-11,-14,
34,12,5,-11,-34,-14,39,9,10,13,-4,11,-33,-44,-16,12,-5,19,9,19,35,-37,-28,6,-12,-11,17,
11,-15,-29,1,-11,-12,13,9,26,-31,-20,-35,-29,-7,-6,20,36,40,-19,-8,-23,-23,0,-8,7,25,33,
-12,2,20,-34,-27,-10,-21,-29,3,23,14,22,-10,0,0,-32,-34,-21,34,22,5,43,25,23,21,2,-10,
-7,0,-3,3,7,-1,-6,-1,-13,11,28,33,11,11,7,-38,-33,-54,24,29,40,3,13,5,-34,-39,-44,
-18,-12,4,-34,-42,-5,-13,8,24,-27,-31,-20,5,-23,-9,33,19,24,-1,-13,-12,28,22,15,25,19,12,
-22,-15,-17,-29,-23,-19,2,6,1,22,19,16,46,44,29,23,15,16,-3,-12,-12,-7,-15,-9,-24,-32,-19
};
int mean1[32]={
1936,
1060,
987,
2495,
2286,
828,
2036,
1038,
1150,
2390,
1946,
1939,
527,
911,
2589,
2906,
1449,
1897,
-787,
535,
2469,
1353,
2178,
1398,
1002,
1403,
556,
2171,
2116,
2830,
2033,
2232
};
int W2[32][9]={
644450704,458528580,1064378944,1601609926,662169725,1064815100,789825976,796641464,2119869316,
-1767178317,-1937753157,-895002482,-1073592622,-1249323053,-856589909,-1060808530,-2105522474,-1272326253,
1487204393,1887441704,2073079973,282334504,9441288,8393984,1162094074,71303616,868286930,
1062879013,1473700685,387982145,513160973,900768361,354491241,867639625,926017784,654416680,
631251186,1157641347,1826240727,-1517784861,-1526091613,-309610333,850137795,-316132445,-303517277,
371812969,84479528,-2519281,-2027353223,-1490448639,-352604599,-1624666327,-826200567,-1954824435,
-503297443,-861050321,-353510788,-926855668,-1297561991,-925021124,-1073651925,-1065008628,-961756449,
-1069177331,925744977,1279309317,-922895815,-1288831367,-858444243,-926368707,938278005,1307917359,
2147332193,-1088568968,-614886553,1060999288,1591319852,-2104163251,525965664,-866314491,855736648,
220505735,623682144,694428359,-1995691345,554508451,688662703,-2088685649,663497635,-1411863697,
956908153,201345896,-108479667,858376824,-925624819,-1298015623,1526514284,144523817,987619164,
-5321998,875479986,1553093514,1310672934,1117651462,806540736,1485509062,1446445382,1108525138,
8388864,900235474,1971311098,808222944,925688306,2000682494,656720306,-1212227082,-3593,
1813699733,1819792084,1518263516,1378516996,2084438020,1818105860,1482311686,2062467078,1940571349,
2107564418,2105471363,2034426019,-1395001,-67439401,-68241721,204738640,74936468,206848020,
-991482457,-822120961,-940577057,-992788601,-807966289,-269590306,-985449726,-858316497,-805936898,
-1030843660,1709766065,-867997514,-2133571490,-1025063212,615302801,1843427507,1212631228,-1595781412,
251898787,1536339879,424027079,184687523,-1953324249,-1691474969,269628165,-1817042579,-140042007,
1523702396,1351665232,438076168,376855932,1389774428,304136792,1459505012,-1766570148,1444202780,
-102971445,1943205851,-202180645,340788752,22037586,89179328,763338934,620759170,621004946,
625276370,943990151,-2134620198,-1209139753,-44187745,-657101553,-1083312174,-276973673,-933911570,
241146657,-626129307,-1254113160,-896262355,-1817361815,-1777770887,-1029892311,-1769125336,-158769343,
-1118781607,-1064256757,-1247500675,-1786675335,-1063969015,-1852971411,-1728004311,-1063964887,-1817409935,
-859551058,-491993514,-842990146,-997695053,-891991492,-1766996270,-223820078,-868124353,-1462941666,
763212136,1037930914,2044367815,2034872163,1523365665,335033705,1425811364,292823105,623968584,
-1048532317,-1179846993,967703727,-1065062902,-1851496741,396459427,-1060820598,-1062967654,-1851496749,
377472340,-690026682,-835204772,-555805370,-1775287428,-701513384,-159399155,-701546120,-691058858,
1793175629,1845081227,969469037,729151612,1836448254,570030717,1776590853,1843769542,568631428,
917145427,1849639418,-900478242,-635729430,-139540494,-564168257,-283391050,-899758122,-148183086,
-1086477623,-1817679239,-2104676567,-1701036499,-1758892167,-2103885973,-1551092099,-1752610007,-930015447,
1582702340,-1699473591,-1238263496,-1816713651,926013944,1055956742,926534136,483434322,-1701693691,
1545029938,1079132562,-755050682,1409417474,-934127870,-892119662,-669382830,-871213293,-312486410
};
int mean2[32]={
1439,
1270,
103,
1022,
610,
905,
893,
1293,
848,
447,
764,
809,
1660,
724,
1827,
2018,
977,
1297,
964,
820,
2170,
790,
981,
1065,
861,
961,
1382,
914,
2410,
916,
1324,
978
};
int W3[64][9]={
-1419366842,1998730976,-1888868206,245808192,2116459592,503830609,1315883016,1848412232,110024706,
-1073787450,603409774,1735360511,-1801678109,-795044189,1415460393,336771138,269541392,-1861195744,
-725751529,-2037312942,-1768336876,-156204714,-1768848702,-1227242926,1995740666,-185237274,-151662873,
996169698,-1578489883,1571290689,1748043204,-1587386379,229109577,-489160702,-2130705612,424059653,
201439251,-1528643849,-2002732749,-1485330382,-404340994,-214781256,586648586,-421065489,1143459901,
1426323729,218463002,-273449101,741381009,376476560,920687584,585207286,1659145454,582058102,
470340105,403750945,134799664,574636514,-1344017054,-1343263750,180428998,598552158,-1020838276,
-1728828091,503592133,1494496640,-2087270336,-676365751,-786666221,1151240775,-676382103,1889405443,
-1289483188,-795075146,1223132646,-1020512243,-670010958,471136641,1108162636,286817175,-1660618427,
1663180320,1648361514,583041634,-2091253194,-1018560454,-1018544102,-937612874,-431094729,-1054967524,
1347715233,1759840237,-940626193,374525978,940740769,-198015191,-1360297993,436363280,-385851095,
1332100488,-1444643242,-933217098,536334536,1798591176,1800156630,1052611523,1989187081,1702629293,
-941134226,1721835071,1477524279,514693331,806424578,-1827558474,445755602,-1823414062,-2085097602,
-307691627,-1875312235,-2104465002,-258957902,-1693365870,-1956650282,-1311663694,-2090932010,-1022440932,
-454086801,-595068039,488300553,-470415382,-712574095,487450633,-219730738,-586322597,1502603535,
-947454622,512223296,1881936927,-1819805886,246409801,1879907335,-876090430,-828020727,2014084150,
-1803627519,2125025291,-252181125,1952464370,-1333707278,962735606,132546004,556230998,-2086211900,
1268872829,1231165373,673187757,193148918,1004712701,2034288553,982766291,1051775691,2106957801,
1810598988,1868984778,1006687136,1216424845,-336777235,706846946,-377477715,-345692426,-2113863438,
-384825868,1240245701,2032432521,1225272438,-917232635,2099523521,1385709111,-1822755114,2037789761,
-1052498513,-2033720122,514718275,-489224210,-1681681726,1589509187,-221214734,-1225549885,2091236107,
-2114615838,-302676510,1819465175,-1945591679,-871353949,-1945256571,-736092144,-1272963022,-1878511567,
-2138495773,1453659852,-2138826971,-1676498943,470847488,469821440,-429527736,-135865910,-1532664498,
487223305,672154000,-1675893632,1869084652,-278469138,-285415480,764231373,720111244,1315271756,
718361826,-1835981354,-1948259132,949052914,-1949045034,378095311,164872182,249950924,940119575,
1977079591,-684318873,-954573249,1502647729,-982252244,2099142061,1031830963,-917461599,-864622167,
1112853,-1825435120,842092566,-481160644,-212188622,-2082815274,1667125916,1985663132,48205852,
-1043774721,-1852646527,901347125,1885349874,891290609,883048369,1743195588,1902517292,1060249584,
-2097087072,191242242,695619592,186564740,1246216268,54972482,776898379,1792905288,585965121,
782439856,45089712,-873060622,1052889825,1055167688,1735824809,445229083,1626188111,1309059401,
-1293168910,450221283,777160609,-1702281498,135368899,1812235649,-926075833,134246401,1677987081,
135300024,-1465284354,-488001802,1761755305,1750206252,-1565319434,1672138761,2030223369,-2137882624,
-2116096700,267349068,1611421103,-2100640188,783093837,2030329118,-1856983274,-2014464180,1730445137,
-526271435,-1073217530,1652779102,-1055903690,-648544206,-1070591712,-1724880590,-780385244,287318304,
442675076,984172239,982598898,178901709,713102994,180994770,982603474,198829270,707609310,
2047433200,315583222,987363011,189628214,450493174,982644467,1317885617,446518979,1016453089,
814809842,152101760,1680753449,-1429116976,229237697,1831620521,147653316,-1927187520,1982662501,
871569006,852562674,449871954,446287890,445891282,734776009,445901459,621538203,-351850561,
-1702104335,1025171457,-1561360402,168030225,219963401,-487649282,269217817,-172005111,-471003162,
-1894843724,-1658850787,-1893834468,1276023309,1276170249,1314902152,1181484296,-295910994,-430059318,
336807945,-151613882,-151710494,-1879048191,-420508210,-403864378,419590683,-311230067,-805458610,
84164617,-445765699,-913602570,486957065,1835404589,-487123210,1544481033,1952720809,-152008974,
1167462860,1161200257,-446429820,2003993465,1966248809,2002649385,623021951,1965211513,1094846249,
-1676488119,-1877425647,-2071099743,661285244,403861520,-1743781712,-1553789067,388706172,1025532160,
-1869116826,-1300982047,1969493901,-1744130046,-1743749119,1410073857,67297313,708984994,806095968,
1800226623,1749192874,676496000,-498527187,1649021050,1615986728,59547199,1649018044,1631716921,
-878762363,-2112744856,787744448,-486964102,854758632,988841664,986945151,854820858,1056343914,
1171222286,1571781181,-1811334381,-454158935,-188803853,-1743777645,1818231840,-1744826190,-2012026704,
1201133581,1200786212,1990629902,-718694109,-708212378,2057935206,1886393401,-185555533,-722430622,
531578435,-1743163102,-2014320572,883520083,-1852740186,-1901842739,-131498921,-2117440255,1785528524,
-1744293855,271099905,-1811935197,-989824672,-1251825632,-1306498958,-1054447355,669977924,-496694066,
336646657,370200576,1041809953,2087847401,-420016146,-1359632670,1818502569,1743073263,-1062131976,
-1956672969,56527413,-1947243937,412254944,6210176,-896724469,-1461532736,709263552,168577032,
819074751,-1260714189,-1856287004,471889691,-1332709454,-1986334847,363101585,898854898,-1668208192,
1928562658,933303026,135266610,988614638,1319993039,-1743167471,-454817946,2124755685,-2129600511,
997742235,1632765865,343330281,254771021,2069387198,-246282839,513969993,1663389485,1229739452,
-1259041726,-2003468283,1863603855,-1090706229,-1998994236,1217217669,1962487787,-254726281,-1675808923,
355645778,933642098,396803698,-1493205018,-1493885458,-151713938,-1675808030,-1869311869,-736587487,
-1979059179,1209820173,1927626735,-1995442103,1544387593,-488305306,495942213,2014149643,-453671426,
403824785,-1445991084,-1962185104,412196880,46508230,-1548796299,-1743011822,586131650,-1297662393,
1409464340,287451141,-2063451875,1981599745,505041429,336728603,117344260,1193017359,913314368,
1869575501,1856468381,1386551034,1341093517,1501853113,1272075386,1511314121,726062985,1783977498,
-1998944347,1231976333,755127992,-384695363,-1998682707,639852493,1802401261,693121465,-935558771,
711202022,1755386284,1750338948,1587622592,487645313,1032251905,-223396237,218359817,-175429057
};
int mean3[64]={
1467,
2175,
936,
1735,
1434,
1234,
2614,
1657,
1434,
1828,
1448,
1134,
994,
1229,
868,
1256,
1132,
1052,
1927,
1114,
1083,
1926,
1482,
1826,
1268,
736,
1770,
973,
1997,
1274,
1781,
2259,
1421,
2205,
1333,
1289,
1862,
1155,
1305,
1230,
1549,
1640,
1377,
1947,
2019,
2020,
1076,
2513,
1248,
1147,
2415,
2032,
1724,
1071,
2082,
1066,
1043,
1265,
1044,
1764,
2089,
1340,
1281,
1322
};
int W4[512][1024/32]={
-318687931,-1741660954,-1392057263,-2133819954,-333310957,-1742201108,1795611820,309161030,-586961039,-763884472,1929822865,-791668461,-1004488831,-1656513809,-594022181,519000045,-1884619477,-1309172561,-1334265949,1007991943,912308099,1008187567,-1356153566,1990664172,-733956185,-1721795546,352499438,-669944651,-1803385929,-128860995,1711998754,414653870,
1945821119,-204088171,-17268819,-775561257,-1778586260,-1792206861,603315823,-143150699,1976827013,-237773386,278733512,-1853619632,9256965,549536264,-1208447995,-724478591,871706692,-1058458218,369101317,1958280,1462281,8831768,1118637125,-504782079,-67221144,-675804491,1894877283,629827989,-240838279,793611037,736622956,-416677703,
-2063515882,-2045025492,2169439,789061925,9240787,50995337,345475601,1644732809,-138232698,-1019939845,-2057293993,790418634,73538903,252631243,1909677134,1800659589,-1470591,-1027924013,-1612612253,536844942,-966781694,1457757162,1342125902,-772843209,-341866002,-743612656,-1114044292,1628359197,2042837369,162450109,2046013694,-1652684611,
1925304535,-1375199295,-930257600,1691968917,1754778996,1717225361,2026954167,307879105,851562163,-11067967,-536548464,-320623807,-1051369096,1292084217,894562805,-1642201631,817941233,1063223433,-1543128174,792953697,-2143328328,-2115787477,-61554547,1662360961,-764873089,2103432349,1818243638,-111733249,-333434314,1492329994,2021312166,-1071129150,
269271707,-1458265727,406699945,2095718687,1366865801,-44877321,360546887,-1525178089,-171599867,-1172810963,1036433509,580805820,1015439940,1620863121,1486639057,1641063424,-694121015,-164467983,1352009857,-447151164,-788133864,264847936,1347574798,-380440564,1402916747,-58718511,-1038267999,1736574784,1226655755,1740784453,427225439,-419018567,
785647408,531130690,-1015955692,-1900891385,-887328212,-1737004762,-1232538628,-1628614298,-2070617530,785113989,-613810366,1667692607,-345133494,1150710655,-491174964,-984842221,-2087181558,226632559,28071752,1166424127,-2085844216,1837768727,-779336824,1434628107,-1583804792,187738722,-383831478,1327532574,155127434,-519962081,-1868928245,1734516778,
-1894944148,1097333274,1870658239,405064250,-1107628411,-727352002,-299164815,-173819041,-516016882,596275774,940609679,1109148732,1004051595,-421702339,-1028841726,-438063579,1393972494,-769521346,1408419406,-163741956,1156748511,1052532464,170602578,1710139958,-845340308,1738636094,1104273913,1160564694,1658510841,-20063019,-1549045896,-1497750986,
1214710176,229329217,-355513072,-1057178185,-375409391,-344188257,-357832859,-793374142,1791969529,1070532113,-100742791,-337462727,-508598038,1801361751,-87572231,655328105,-1603876651,761250189,-529670181,-1379487161,-880810278,-849925249,-1468020599,1828954961,1650326678,793740325,291855255,-1478773900,-748921953,-952404102,-530723681,1229690816,
679043944,1300331888,5046304,-2136109566,239198752,-1268512157,619340,-2054811026,-235714435,987645869,700319848,1802389044,679987237,602539537,-1432434627,659186522,1904198093,-573781763,-395459256,-1393917103,-936426344,-1930556575,1781891321,-850744496,292352703,-279478155,-2067244299,-1659401261,-2066951174,477506552,-2004973415,-55206335,
-1334477258,1271512784,-2138801560,-779244609,-2047466372,537165854,-1309616417,-1438593735,-10240089,66844654,-1088738705,-617527466,362703493,810640642,1022512939,-1265256308,-1368968380,32374326,-1088870804,1488674294,492096109,282902919,1421939412,-1328796566,-284217806,1118843440,-1214642602,1225802000,269786839,55684097,10492339,-1174330903,
2027063733,-1491939995,1926682847,-740391728,1925635773,-201516491,-830337320,-1058698222,1230356981,89034108,1363968267,-1552797121,1199548042,-514813921,-1910291328,-868999180,-1181333411,-1460542311,-729661651,1889171119,1569896141,1901132959,-1239237599,-1124622380,223548798,57622887,2098624398,-841386249,-44838044,335150527,780195047,1553932243,
2043986489,1795557017,209146357,-1219918324,158676334,-1824876946,1265856638,-1896262467,-1483624145,611357678,1426141829,308936942,-738183931,310106858,1853256750,-1955507245,-1713063508,-2141157869,454617253,807085451,370242404,284227722,63545852,478105395,-1445000065,1471890193,1895730809,1737114641,1909827836,736838929,699922687,1005258389,
1927793907,801670065,-494073765,1200595909,1771395189,1129038636,693367007,710624497,180472773,1054123460,-2093127796,-842882238,-1995152887,1276371966,-1651314247,-1801560581,-1580860687,768444117,-1526390088,163742531,152954888,1229178159,2035665289,-1353730567,-616006538,-648095443,-1385287146,-386780627,-1727154626,1219715899,410445370,-2120016537,
384305916,2032976082,520450342,267240201,-1921157364,-917323278,836162543,-1123013443,-1431630804,-273689771,-1887340682,1212448804,-1667471524,1311996282,1905588709,488169981,-1850230214,262746999,-1248217268,-1041094601,-678615189,-528156369,1507705807,907855291,-986107028,-1858381778,-239695280,1779896365,294421203,855876617,-132187499,-1555369907,
-809916601,1518075694,-1083001189,1270732772,-1352578539,1312752096,1288534869,996696836,535422914,-1716109657,-286312581,1487240462,-1084301,1126030766,-1179288849,995813221,26036297,2034633665,363200339,-354015169,1911280467,-943322761,973064411,1875551961,4241031,505148995,-1856971313,1297592333,-1877144439,655852041,1214209966,-1496059572,
-735068254,1316653582,1316894511,1664154154,-562315394,598300271,-92603997,-545761387,-178571354,293174254,2038369533,-1997218184,838064357,-1225501124,1052430135,-203915589,-230750434,1312519642,949225599,168642392,680641659,47170620,-494609883,-1275452497,-1514405108,662403434,1282688637,1317858294,-1351166387,-1437701121,-1276839208,777987063,
335312430,-399568676,2046634879,-209807073,1903479805,-1016344393,-1333910917,-19065967,-1149584218,-939927563,359208010,52172806,351077393,1344034818,183667766,-204354431,-475972206,-957835340,262668874,1083978002,8655363,374280330,1089992062,-1824402019,-340808408,-790610283,-201543860,1269713813,1910618472,1735273093,599652844,-109968199,
-713836665,-1866990561,1869166477,-655917457,1326299084,-656113805,-701945908,-726368490,1179677636,-1740866462,109101696,486503291,1377354644,502051338,-171924576,-1795850338,1053886207,-566401085,-556963470,1727383236,501182588,775471694,1574036724,-1957172197,-1576884167,-408838333,1630588168,-178020909,-1221301212,1796768361,1738724053,-1298897857,
1936611598,-1009975640,90257998,-761543706,427899517,840843540,412601073,-1404256231,-60246620,-1259995401,-1750521010,138282470,-1810330361,1387883649,850746943,1800660357,266974148,-123323721,-1617287380,1421568926,1582332453,895086766,525025126,-638256073,-1951756806,-73165103,-1145107711,1638485817,230008642,95051811,1295364447,962612409,
224322109,24508575,-1238745338,-1103416834,-1982406036,-1177606701,1863125605,614217875,-709708925,839973935,-1503512826,-1774234130,-2143811748,151601985,-376027318,1633689605,1488641409,-190809921,1474824038,-578823218,-798748298,-1116114240,-342970130,-650766082,-590892592,-1247412579,-275028908,1169973110,-1047437228,252461894,836423899,50867261,
-949995610,-1753753282,-17948953,-786449444,380059391,-498226684,-819056042,-521756402,-178077818,-1846347330,-37024183,2024298494,-644994040,-515351393,-1364325368,-504328278,-667487800,-840812484,-670301631,1553874882,1297547501,1892187292,-1439816416,-857035196,-1048385150,20120624,-1232614857,647620421,890657367,584639784,-1983234541,1675637536,
-2028653668,-1892212713,-1920161070,1388802051,-861128818,-739820410,-861329460,1484780550,-1893125830,1245675874,103670656,1099020547,-697732149,-730416989,-968285435,1152772898,-1289651053,3508261,-1628751429,1353815062,487649677,1351637143,1975695413,781378349,-187527947,1116523650,-137099204,303845265,-1217165137,-1554393983,1699977398,524941293,
-914868442,-1778909954,1060715214,-608748169,406891256,1754030483,-1265317261,1952220049,-512527956,-177997700,-1252346162,-2093067082,-1802336666,1754823937,282510486,-1605319540,1802679788,-776487170,-543545236,1228489724,-1877835636,521818825,-1286357788,-1116483396,-842328597,-1867616524,-71750593,1320079120,1106495971,625477773,195071212,-1255125831,
-1266377647,609903593,882612307,571040227,-1635119782,1922589826,815060157,672692481,-1295610735,2005428177,-1494201257,-1173534784,617760215,-1741852736,-1315518241,944787849,-1563702141,847251152,-2131700457,-1213100576,-1568486154,-1274423326,-1565467410,-1306967119,1894160603,-8183855,2062497136,566574976,1895032186,-871543851,2062665976,730565781,
-1810560303,-2062049095,340839123,262104641,436293591,1472951425,-1871887593,-1867731455,-2045436328,-836816575,180735446,118296579,182540503,388827968,1292310551,782690826,-1105719618,-878743742,1257983346,-426901760,989437311,62625536,2143813631,872021031,-1625357540,-1880954046,-591449016,1238289943,-391137972,1273792023,-821070243,1140783155,
1415656196,506649047,158704348,456597531,1283285918,-2081441785,-1880250420,-629189341,1147255250,-1781098139,128825288,254185799,489517963,1346811942,228065426,1218792849,-2109715247,-1393458335,-1752520055,2094424837,-1794116727,-1126160339,1019643605,483417929,-598682445,-2021667696,911379127,932829057,-1315795793,639360681,537303227,717407597,
-1885688038,-501612049,-2002106278,-331443866,1369098483,639371821,-1935254686,-1544900578,1381726603,-939827257,-235878541,2132630403,1895029463,928815246,-194371617,-1152765265,1720741122,105108978,1425330163,-1626513471,1693573111,-1211278707,-567019770,-1259372818,-1546319288,1873479505,550815995,2001718209,752081625,-1236275519,1905447933,-1612784168,
1955126721,-1077114119,-671345298,1743775515,-738271746,-981641456,1407799746,-1659397764,-796211063,-185440621,475699655,-1332943248,-1906697212,284192624,1132358920,-114060525,886998151,-258705447,773004399,851109028,613549668,50134076,-878578068,-781563754,-82344346,1791520221,1155870803,720251180,-1923009928,971384892,-605081527,-1917957573,
-1078691113,1010831592,-1665075223,-590041865,-1261259357,-601749772,-66675447,-1705871619,1060154650,1266265284,-745734775,-573396521,-139711703,1867758079,-1676528692,-558932737,-1075576957,469236900,-1620066933,1542893927,523190187,1384626435,-1661465591,-219293723,-180308250,-933233491,2000731126,-1736493897,-804485209,-788530753,886714148,-524309148,
2046739192,-123458023,-1975906837,-123384166,-1959698378,-1889020946,872616559,-1090355723,545636477,-511425719,1011086763,885910692,-1076810715,505400806,554779380,734667009,-2111467384,704708881,75785164,824705153,278235236,498926467,1234339892,21153793,-832344158,-1162602994,-2111165310,1754280707,-1573802738,536907783,-2094319350,-1558007747,
722948221,-1519728788,2041760881,-1218937796,-234627589,-792887428,-1417426703,697092961,-365018056,-400373093,1752878591,-1286775623,1626527222,-1379971120,564586729,2069004920,1761560396,1528725468,1759069814,-955285806,-293305098,-1893992616,-300484401,-1558608370,60629316,-550923672,1754122058,1867032703,1320113664,128217714,-1921423540,-1782642630,
-719211626,-1741244321,1294415758,-626624386,1311351592,-1950450566,-836159648,-1061259730,1457054145,-1206617867,-689326653,782514630,-697780229,-564391861,-196955753,639979144,-1098888975,-1604475007,-1769295959,1880126604,1953270155,-178776929,1719154468,-710804785,-258045891,-2025733053,815189389,-266767211,-1226458698,-1337074545,654909479,-693698946,
-651182493,-280102145,2128559079,320466750,-1090895890,-202559725,-615641110,2096186129,-169952892,1948974079,999361621,-1978907143,949095701,-2081921520,2130366222,-772768075,-253786166,-425583113,147883119,-1550725200,176541798,579454796,1269822310,-771819458,-1246887216,1687795843,1815350649,888106694,-943770300,801459797,-944704808,554852403,
-1092580185,-744769568,878250572,-1499535516,164750068,-1857795063,1074329508,-1681407924,1852400420,-1781629707,-1986461112,-936230287,815188135,549634365,2047923096,919243256,671563864,1757962257,-518599672,-1460503527,748127810,-402194595,-1069284799,889889002,54152506,1242638342,1235669363,-654399233,2141615979,-252593602,-488032415,-2119227286,
1300119330,1402305692,-2073150615,1351456990,296067296,486804351,1228869224,-983408609,-717113465,-1852244498,337654404,356194246,-1945368052,1259012803,1217334296,1138778633,-2017217920,1949608570,-704105579,337240259,-835296835,1561945026,-26772294,-596265405,1636506866,-1632763279,1645939380,629162241,1955874838,55111936,902887638,-2024767868,
670231165,-298758732,-1195358159,205522320,971933987,441109724,-478896379,-655130634,-1142190752,-543342701,-1897564618,1333902599,1294300022,-948979506,1832743406,153884022,378383058,1858734353,-1951580326,-807007961,1609397011,-1008432845,1170199387,520880415,-1609814144,676369920,543038874,-1185767411,366873483,-1458143224,-799532266,-1504317106,
-1909771442,1491172930,-833854171,417951618,-2014757530,-1631588506,1036859645,467297107,-1095779359,167714523,-349343628,-875753890,1807556732,1202701686,1040141051,1537046321,-664950029,130976579,1768767474,-1898997436,-345037317,-1882780814,955697339,1657627986,-1324498420,604762435,-1739230883,-1907433130,-95988644,-2064647338,-1090553860,-914366122,
-48788177,-4333840,1712479743,399376072,1033337967,-1815885972,1767861502,1506399781,-1660897401,-1611219857,1174464392,-1799309448,-970967160,-1662928022,-832371196,1123417926,508563993,147979522,1451394660,1955855598,100669028,405929934,1384932084,190424339,-1643116704,96319658,-685762816,815365167,-1356650746,682408259,-1574889870,16802050,
989251274,1472842961,-352461522,916621137,837876853,-698497919,-1326130769,-15617547,-1922222858,511640550,425538156,-1945186607,483788836,591948848,2101968366,-2457931,96541636,506354679,554762294,34587465,671416372,65783080,9581134,-2087580626,-1111815967,1588828925,1817460858,-1398371460,175260017,-1452932996,697909577,-442094095,
851957813,-1752668959,412467448,761889601,1409209805,-436213202,-215827153,-675849226,-528119659,-1357166602,966236349,592232473,-69478163,1912127679,-748094206,-172091182,-528507426,-1349683248,1751079100,-1605572864,-1124153091,-1185982912,1249519884,-39642914,318849833,767715187,985616059,1317037890,2020727607,99407110,183198468,-188952878,
392446556,420472987,1129692587,-169759075,-898026196,-840706694,861380495,-1619698331,-1996191135,1019582477,-1894829268,-924671940,-821283460,-924586128,-2087018455,138270033,116387989,633382927,-1347734764,-924710858,-282385624,-923752074,-1277418952,1077749011,1366851470,24120738,1932437778,-667938762,313953203,-1292139638,-897700086,-1037999154,
74579599,-2328385,634204783,881422314,956112590,51078404,694016717,-45473647,-1251829884,-1510932738,-1761591802,-1978103826,-1785557370,46228224,1251493259,-80271981,-6350904,-188072330,-544207290,1086291966,1302339190,64618437,380397515,-771777290,-40959111,1956706935,-811661736,-424906890,768493147,1741450819,-556207152,-214145007,
-894485458,1273873174,163541372,905846,-1443942035,273176602,-886086098,1132057076,-13944978,-957454862,380128159,-788457710,882035333,877855427,-56160484,-1282642258,-1451773427,50201874,1348523927,354416067,307269255,824049539,-1823883450,1158554594,-1961325509,-1990803408,-1872428542,566884360,-900915192,1122106148,-1183275425,153944945,
-944030451,1697800302,752590450,660431105,1056918142,1910336769,-1270368,-123916074,-147168502,1193153970,1641089655,789403473,685100144,666919945,2012134372,-38880565,-1864563118,1595570119,-898363878,1205187395,1253867275,1661187077,-731038781,2005727878,-1808981227,1813641670,-731039924,-706872362,-540526784,-796628762,-1765263424,1545365762,
1265138442,-1947551554,14815806,-867923886,862262330,-1039841232,-903661746,-878042578,1366310278,71065598,-1669329327,167773896,78252819,-2107397010,-1163184374,-772500780,2021672899,215485561,-1033844909,-2064327057,1080121283,-1929495572,2630210,-1676803766,815565017,1862902601,349454933,-2033193024,633619028,256854868,295097044,189292649,
63447521,-1643762861,1154007232,-426332855,-817859291,-696805044,-1282805278,253120878,986597567,1721132179,-1453454218,619376233,-350750858,1245605182,905105527,525956048,948863100,1842176969,-402176216,-522032072,-273807798,-1037832322,1933319780,1666819350,1803378494,710443267,137361787,-236932937,2137943022,-788758882,921253646,-710143630,
1353582090,-1482054851,-356645058,1110300450,981066367,-1554001902,-1192014157,-2836799,-987065082,-1338836226,-1909777334,42755686,131875852,38884352,284216579,-1273918843,1509229044,-761758983,1242239532,1085039150,365975084,37639320,1360130277,-1722615619,736075513,1990732501,-273735088,1202481432,1072800329,55340435,329357807,1058751473,
-697286873,-1033915738,292590120,253436005,433937038,738590977,345883348,-1521966335,-555608186,-189464602,-1787806634,253608002,-1942741737,236548352,1350327946,-78422007,-23391264,-594264077,526386726,889027214,-834005242,1157397486,536555334,-788702021,-1895430232,-794702823,-1954212796,95291965,1838092891,32008252,-1076123655,1391217718,
169623672,-861623808,-1738013309,-84820758,-1926450815,739480550,607482422,152511860,142721112,-1396563967,-574425151,889126118,-1790319035,-669120026,-2013198755,738331210,167811212,1789198937,27025600,656949760,278169796,421077632,1360747780,-1193113567,155425850,-88734099,-1962211158,36832040,136020151,589402152,1767073855,1386454072,
-2113039038,-2054739102,1183060502,890974801,26035792,353710481,1387889046,-1525557238,-160562290,1997171434,138676300,-1610070048,14092308,545801728,2020922900,-1589450232,-599488569,-201306408,84935764,-2010508688,537002000,705218312,685052994,554715276,-1708586755,-268398599,-910835608,774768760,-1062844296,740559464,1101027417,554699912,
953371711,-1109309520,-396343815,-246837256,1777846391,-1888757907,678611131,-1746385687,206923517,267355664,242577843,382188302,-2093649864,-1620599826,136774334,61728578,-2030751087,178239791,507884543,962574758,438385145,273121546,-1037088233,1180820226,-1773284829,-1520455421,1443673746,136065363,-1811860708,138869003,-1888799948,-2128090790,
1774393607,795525981,1745291376,65684700,1781149500,-775770926,-496005621,-659270253,-1450997700,201664360,33877760,-2048678868,1309160276,-1989957589,-1904728312,1211369811,-1371157837,-506360563,-953420000,-303848850,-818318580,1223928382,-832003320,1295193562,73741650,-1587562482,-986843248,477280879,-581995626,1219500347,1716201234,1411849314,
1801518637,552668094,-2111791221,-780955246,-1872223352,-600368656,1719450402,-1200520305,-1313948555,1876799442,-1901578377,-912475002,-2073221257,403553734,-2933529,427685877,-2046467568,164768052,-752257205,-638085001,1128887111,1183824382,355795907,243917647,-1978725374,1211691520,-1785066412,1209442852,832505935,1124737544,-2145567786,557981740,
1176308951,1184266051,52273218,663429387,126615912,1094918153,-684087930,1192450307,-353493248,-24350717,1283195516,1630326408,140468348,-2136062448,1533821872,1162517066,1821312636,1452042048,680935548,-2107104752,-1431435184,-274086064,725447262,-1056724990,53299736,1848804328,137742385,755008256,1252808217,-1536949950,-2567591,1899246291,
274530960,-1391058831,483492564,-1756726231,1457315722,-205013813,-215369777,2111026135,-477230058,-298625188,135727282,592045097,1314702750,-504501246,-143808692,-650642537,1384091010,2098462683,-874099606,-458673588,-985218490,-856104196,-678938930,1505622206,-979618879,-173495810,1098468801,890112991,1194947910,1030682862,-1786464688,-58957249,
-977847994,103769958,2039949564,193945885,746686685,584868236,1017071831,550300438,-1081479608,-1934726301,-1650488566,262142723,-329785813,795928618,-921218092,694313067,-1475147524,680096449,-1936254212,589652769,899660485,321766407,-308863172,734258693,1865639694,-1996724628,-887415002,-470714578,-348578298,-2102299869,-1353773537,-738861257,
-577273678,-298925697,-314892738,716787773,1312754622,1676241922,532850673,-588505808,-935149336,-1266384631,-356264454,-1096451027,-362031654,-856392672,1325442497,1588009151,144442538,1890601745,-1886974870,1857167901,311943278,1647345693,360747253,1006672013,-728617896,1600971604,2076053096,1789413401,1995638836,579387413,1275368082,2119229451,
-1851810597,1023969865,1714025792,-1330737289,-498999103,1832260467,480068849,-1928402103,-1742780843,676087488,424988989,619872829,-1145398221,1250051866,404003002,1665385030,1656655159,1912653725,1624675807,-1291676488,849743099,721770394,-470549170,-201895762,1802893612,-238529025,1300230560,-244958978,-353688216,-593158178,-1716917912,2113854933,
954958966,1880981461,-875575919,-185484137,-874539611,-1119938587,2043935217,-2022187665,-604803802,-738861177,1945361903,-101508107,-207255391,267093976,716306943,-2081437853,769751917,-1174669130,-1202864907,1015848913,714947837,961539363,-1343624068,65824385,-2061994426,173670574,-1820017017,-1437593043,-1869739493,-1030561503,1549813527,1674151170,
-600687137,1381064398,-1270865759,-1677627964,805318818,275901612,740441255,437353638,-1084055709,-1818476574,-1406830980,1275695040,1821467508,910842,1021476471,467500524,-165218329,-679506877,1629781907,-1889300894,1617491891,-1907913877,2087992114,-1976731794,824452049,780777281,-2041283267,444567360,-834341740,1014469450,-187566348,456488290,
-1781746752,1513615578,1433778837,762755901,1428468421,121614343,-692551779,1450424279,-1000017018,-1787299801,295023174,221698367,1360376407,601288751,1432204231,-1789560321,-2039928894,-1783154462,-1686223960,1681261325,-580019388,-307867473,-44235059,-841547789,1451804074,-258153454,-1356928869,-174551422,-955576402,-594280825,-1609676149,1787949839,
-936397555,-2048528835,-349346040,-915580494,-508713211,-1942735110,-696734565,-144849455,-49333717,-1637088474,1402790425,1264718163,1357173185,895095453,-51737173,-1214923623,-953141468,108249870,1094218714,235897314,284741587,1012011225,-255800955,-1098434613,1135356164,-2068909538,-749181684,1092441554,1895091589,-44198463,1365293536,-1274110261,
-1888666100,1097827122,79125690,1265010961,65677995,-205371361,-969984256,2108043798,-1010942946,1126204222,-1993863350,-1959113503,69887386,-782063616,-991084800,-176146298,-613259805,-1007675330,1130427659,-722223906,-1033365750,-600728866,1466646466,-600040218,1001259129,-468084711,885399668,346853072,366272725,1343065308,563456508,185100525,
-199423100,1604026119,-157511974,1729406723,-677445681,-212276411,-1281524775,492467175,1985596171,259748206,1933494665,-1511982541,-201802358,-310980105,844941983,794511179,-220767427,89842062,-396388099,-1584597487,-397588792,-2119291017,-1027784048,122544898,1471732486,73117986,-1775444205,-196004905,-1498644598,-254592061,-756523256,-457166009,
348177328,1047440130,-672598118,-852250683,-1897085048,1840219093,1466753732,1824784851,76342369,550743053,-745800312,-40719881,-1617957495,2091137795,-1766964983,1619034554,-1778468056,-372002113,-1693538264,1958347293,-1766929879,1892720783,1471808264,1892724891,2107340390,-1992301138,828318551,-1556549601,1364376519,-491127637,-1277293297,-716902935,
-914888785,469089366,-1358088436,-1738122778,696623220,-1475571969,-1473044384,283264776,1329689456,451780454,2007823129,-881708682,1374483337,2119602631,-1937067119,-1496436856,-1490454760,-1033653982,-725029999,1947563411,-1778582633,1028747651,-1266360429,-1097600055,-460798719,-710581134,2006732549,-1004706430,1962001028,-1587940217,1429213557,-1910579972,
-254638861,1054455745,-1329542715,882566597,-1467677324,214492617,835765435,437798353,-154891581,-1244680751,-870037948,-872190013,1335924,22250265,351326393,471848385,644681861,-330054443,-1584058672,-1974401182,-1610158959,-1606359255,1347732873,-1240328823,1114138406,1501555780,-327916490,-931966600,2025256739,-1996900945,-228395165,-1608042047,
1811897148,1709933269,-1711318167,2044172191,1778109753,-273968139,-1409974739,-269810699,200915197,-438074468,-1776617333,-1185893915,304662921,-44844599,-1946170356,-458816611,737228860,1640568724,-1760841619,1891287215,529998061,1368684959,1006603596,1673955733,-1409631766,-470088521,1940893578,-365817803,1907330479,1653715359,590327083,-209547503,
1161902604,-1926770541,164971548,38658832,725437727,-742276087,1798453518,-186535240,-2063437560,-1955363086,33580810,-833583253,-2056620150,-1763526614,-1754613878,-726330958,1525806499,-1972135918,-966723677,-564683545,213915635,445102538,384313062,-703638078,-657719099,-972424824,348389460,505368281,-1262184363,307095757,1434991572,278558860,
135627120,212337473,-2121695150,236589096,1747126483,1648889992,143507704,151833859,-1968307398,1242145282,-419768714,2048753030,-395838465,-61279033,-1056015751,224559739,-1938867470,1525426754,-1073879226,-887023309,-1211252762,-1220170522,-41214977,503380590,-834784238,427717184,-1962363228,-747522902,-838265982,439562278,-1072740605,1560148108,
810932465,604316049,298893664,-1270731671,320403080,-2091439688,-247808245,-963135267,-1265268611,-283547691,353798389,558416000,-1811370612,-1329967608,-295031546,-525075186,-1373301324,-167682112,673073213,808043520,-568929880,-185338216,-150323900,-122281994,1034071651,1924538993,1286523574,1117914371,1598813094,300596406,-9735818,-625013058,
-1954107781,1805124721,-1804022397,-1211521087,821467327,793756621,-399033793,659796623,2012517887,-549611570,75520935,-1226969906,-1755308250,-1822433298,-424861938,-873728238,-69742123,-1637902371,1314920343,367001570,1281456020,292387690,237712966,-998493326,-1411524424,1993199455,-1530796842,378434533,1707438332,978110788,868088665,-1409390219,
299811025,253023896,550787313,906474433,416836973,289752091,-1559180465,-1110411913,1127485708,204636797,18123276,17498992,18630668,566255641,-2011872248,1702930945,1730884872,-727421762,-1978007512,1102661276,-1995032532,691136014,-179165172,148037692,1528989163,-461349731,1497036347,-1214250882,1228338854,-1192174226,188917073,-106554180,
1130656392,-2009790429,-1910032507,1357133982,-831948883,-1830421314,169879328,-1808321346,1133034962,1244041844,1990473275,1121777934,1986574283,-788752201,-1209882629,-88859376,-1039614582,1981857027,1592664907,1088287886,902886373,-1722003242,876788215,-57580351,1284219776,-729747517,-1751579116,1352527558,-175012140,-2092055161,-1223352364,978874430,
-1209156393,1868555212,887036509,906569669,1021134973,927737221,342152915,655663169,870026689,-373775397,-1753138873,-1138964666,1016244263,1040207088,847396327,2115564204,-1275410353,-430898728,813758837,1040910312,982698097,910775714,585226566,-204994635,2038222735,-136630376,853663212,-1895213119,818989243,390268305,2062932213,726370193,
-297786508,309558022,509622054,-831286828,214173238,189247880,-1372719324,-1036709566,8733248,99360841,-1922484412,-2002462612,-334940304,-936625801,-1839381800,201853264,2124300,1817268972,-174659419,1349522607,-217179805,-189778691,-1736177056,747144585,1695679946,1495254568,-1329315106,-2095217496,817892039,-1843819456,538312731,600414216,
-666402573,-1428607927,33980592,985080905,1241912746,2037527608,1465032938,-1726751383,1550242553,-1097553765,-364038540,-454625940,171913336,1222829616,528131833,1478237432,-188229757,911535823,-421314958,-1360710042,-55632326,-287824267,-50808869,-233554470,1961685889,-1543373369,888204757,-1135232026,1391512529,-61574185,1422967505,877748675,
1226890643,-1079473500,287576076,-1144802234,-1071327845,253464759,139804766,-1182970375,365010165,-1264547267,-1758775989,546369582,-735103477,1077196974,-2003516198,1748240337,949213421,836806397,836495585,958054826,-1282257791,2044608666,-2116891639,-103805103,-372056861,-206367107,941017259,-1455241939,2017364200,-83650631,1775684795,-74774867,
-717843310,1732102636,1933483295,1396437055,-492171554,-408340653,-1969467702,1833798400,1650149139,887553578,1450715023,-1872429510,-362144378,-722182318,-1442691433,1278552838,278692996,-334985255,1992326247,-794001704,315674212,1744129684,-1064974124,692636569,1026961533,1408149629,1944414568,1844333054,1694316665,1737256917,-343634727,1833593489,
-871942849,-2110291860,815241975,438063214,1883441911,-1336133618,-601215672,-525074406,-646827170,53431678,1886555347,589124748,1994788055,-1562545020,2116191863,1052241642,-880933054,1394853050,1349568071,119406552,1657800407,60776144,-1130213770,-1093009714,-1914895664,-995186055,-296138868,-840110126,-898021528,-1920202126,-1925598528,-1657843982,
918587859,781740005,-1329298221,777545093,-1329476397,1981314432,818988279,-1173008959,-1534885168,880977089,-1782180155,1008395657,605482591,672853411,-1798271547,-31795775,-1266504031,982647525,-1255764843,973203233,-1265237468,554558850,2086585997,-1323467571,1919596450,-262841307,-835830272,-118360218,-566675954,-927435994,1212137731,-1048315767,
1632750581,-1657304951,-2679265,-285296268,-322454863,1811696337,-556012855,-172025646,1641922809,-1127593539,-67728015,-404341827,-68301317,-404832457,-335754021,1464666000,1368311833,-448617827,-923820584,-437896627,-851494645,-315415683,-1451237224,1864598357,553602361,1862418737,818862783,2009714894,1868267263,-1631914020,-1453634370,534869986,
2011750307,1945837044,1994783277,1910480884,2012870588,-714089551,-135086503,-151047177,1910618341,-1308992075,296563528,1770435351,498906536,1094766655,921937190,-140698187,1910943205,626775477,1993255681,1962693343,1092536073,1884306415,-1293646783,-774498831,-508925592,-2111124299,1945434623,621485783,-34320917,-60880993,602061289,-1081963023,
817925369,1654425553,278468968,612925933,429132905,604129563,1615279713,-1395521475,-161295229,-252514307,-1802368402,943237068,471240229,809004168,-1279904473,676336404,298238169,-133792519,-1635613147,-122032179,361132645,809430268,-712927388,-1671934596,-48093782,946559161,-2069490143,655033089,1436984067,572586030,-1791577545,948086957,
1911872123,-3417379,986937661,-1209958634,-100934355,-773202315,1006107945,-33810991,-202133329,-140256523,27287883,-2091478249,14959755,130404720,1912530382,-212755311,585200042,-1498770537,54584259,2014629939,-2122303733,201759042,301253067,1161953693,-68253336,-442327651,2012645480,-1022620515,-470991512,1661931421,1677188584,1767507357,
-1939496236,493784139,-810764597,-650725066,1567929216,-1125730114,1292579392,128346750,1426012379,217039662,2037322768,1942116415,-335843208,-1015146449,485358418,2012129918,-381977183,1607650094,1765751001,1867383420,1799340441,-2082338279,1244625154,-709969282,-1395795236,-556903810,-1591748228,247895796,1298061817,-27884903,-850695239,-575229346,
246159334,489392726,159119262,158452748,-320159858,-918832140,-1886592243,1571619699,262218084,-1997896978,1427239887,410157119,-1786196023,-592283145,-2112028288,1172865299,-2093438206,-1984818241,1261613416,1806866495,179165482,1990373399,1269694728,1625429003,-82266745,-533554003,-1492407737,-88829395,727395279,-2086541293,1176190212,-756959956,
995617855,-438746143,-1326461767,-388066095,952944785,-333707375,-1192523663,-152502019,1995519807,-2093123710,1962138867,1990015105,820107859,639375823,1961230295,-1211187985,-181311737,257916386,1366605811,-1622157243,7141331,-2096691197,1143329474,-2079424939,650461893,-1092689085,-1404480802,235924302,-1476394407,169755152,479646425,249229315,
-1808222521,-1743422418,-1828571901,-1733200786,-1962920444,481588322,1342901284,336624684,-712755647,-912507990,-304054468,1188657422,-1142935365,-878079501,-192803318,1383085097,-48780261,2068589531,1224372115,-1486250946,-815258222,-1758913950,102907050,1387395586,-661212496,885111775,780362800,-1834693622,1860264164,-1796944896,-45533596,-1623275394,
-881911254,-324550019,2143238782,322926639,1031011071,-84324297,-1663923527,-153842927,-612467410,-815539202,393261700,253710639,284723086,1394439425,39093380,-408451063,2079526374,-693731660,1535778848,1178497814,1069068,20463624,1381236103,-579383139,-102778424,-1528258859,-274125528,1855987538,1639135592,669014045,300982508,1564167825,
1670137178,764290024,-633464574,1664193304,-1417783182,1673069332,601611002,-350633663,-264517463,1047713485,2071141739,-1305158596,-1442706369,548689776,3340812,-1593802216,-734919282,1907479726,1897067631,-1849729796,545427043,714872692,-443284664,24249381,2112976326,-1863554884,1474487399,-1741727298,552017145,941558581,-1985739700,220857016,
-1307116489,-502635539,-1329538340,739936101,1900988625,742263309,281499696,-1346756504,-751356414,-316934469,-109195397,-1424074593,1626594547,660525469,585309147,-1555331894,-507697332,-836085773,1912393310,-1893836775,719768723,667761801,-1364639954,-223529850,-1348924814,-299711499,1750259963,-884684775,585358075,-1236457536,1073475532,-755000172,
-1432196632,-2131997064,-1927138965,-655880984,709046498,-1741418500,767789158,-2103096136,186856460,-2094528916,759312628,310215920,1015226740,1513965040,715345016,317228032,1797517628,917905272,1266758006,-639040260,1227235644,-830930096,243529906,-123466116,1757591769,1437145049,681801917,-224393848,676493437,1244517404,1767111796,-1816846632,
-1742702839,271924384,419492225,-1739277114,-1807703039,-1674175234,-782091254,-1810746378,1067890547,-776192846,-1794892743,1440427867,-7966920,1273996031,-1212281749,-254007308,-14418897,-1837658946,1097807799,-1622548754,-345293385,-1936769070,-1627509749,-491452608,2099360676,-1878229058,637628862,-1737159192,-184522828,-1672098322,-183322652,540420052,
2094170517,-1238233691,-232780647,-840739823,1646577809,715936905,-1037063168,3064844,478200049,-1165747199,-286261485,1992701954,-831965318,2132720006,1093075170,170873150,339990643,1054113793,-1498824830,-138266617,-566657152,-584930777,-1925540454,1277234497,-1806639913,526358209,369793939,886092429,-1106661498,-1330465554,-334328649,1048172174,
-187902013,-770277433,-220190494,504330197,1922843661,1632499159,-1244099435,1453028805,1417990853,-1391548077,90509668,1160733538,1524384508,1235829267,-747843895,-347067263,-366076754,-14229806,1757284532,256590336,-1205966788,-1956036096,1583283388,-843590090,1214359018,-173717921,-885165784,1239453960,-885430996,-1914531730,-616991712,-571056513,
1265447204,-1699391372,-278055092,1457871007,-831965523,-1007175242,-362207378,-1029180526,-1883161760,-1473343883,2010063739,2028613942,-168839303,-1870735306,-1754601481,-625726576,-149393607,1752478850,-1225900101,-129468698,1974745833,961299710,-263040191,-1677530251,-717719758,138540770,366798515,471431158,-1807437098,2052711368,353114801,1510142573,
-362660058,-1036526412,951388796,1495257557,968837883,-2125866824,-353118397,-558688783,1609809380,-1041809738,-1323234797,252515075,96457247,558028939,1018226159,-139129379,-1083983388,-1846045551,-1743255163,488383362,269538181,290658442,84738372,1552912329,-294941214,-771946827,-368767450,1269552897,-80659537,7566505,-1889432154,1026662369,
1010995575,-1833666708,773003318,-1963899850,801320672,1857056094,-675075546,1119174718,1688487528,-252959559,-505364152,1860831408,-525023296,-274128067,-237567900,-1893053316,160350216,-389019119,-1802836087,-131028339,-1807042111,2083664623,-2129329468,202033181,-2028798950,-112113996,-1248923005,2090006269,-1795086714,1755033647,-2130246118,748939818,
867761687,1730102426,-1802208841,1917437897,349345947,591626901,-1526965215,-1248577329,-1791905257,-1290020885,738276007,277735078,-1123008986,272498146,833637415,592574721,-1263045889,1131404880,524431989,276684210,109199924,270106098,1117866262,-1823646453,-1424803548,283598354,-320665483,168560912,2089267572,283921040,1802108016,-1363866267,
87582717,1373976966,-1016552190,-64801805,138760352,220599152,634898596,117451369,100300721,-751470974,1858155956,1560137166,-1417332620,170870626,693557492,55173133,1949951991,-1830528640,954135025,-1234368061,-529552208,-1624504477,1847024827,-1544985051,2070999488,-596554685,89258423,1026459072,409324017,-1758525488,684149817,-419574172,
-1455604216,27642416,-1189221253,1095585683,-1107644511,-1328488746,-1518727326,1562852214,-1925632900,1126302018,2010179981,366702978,-155136635,-35832379,-955447290,-1885132991,-2085015316,-508133324,421130636,421773499,438299044,1899228291,256601388,-656159183,-1955938885,-604633475,690960928,1811034425,-1439750098,1139499052,1797991742,-777036740,
-626974826,-1759264220,-1995173186,170955812,-869973359,1265341248,248865373,1074611458,400564531,402630702,-613532373,-67962833,-747816337,1259591975,-1647193896,136137553,-1228216079,-1594433371,-1114686507,-1186698945,-1111246387,159795519,-1177106275,1874939721,-766456673,-346077215,454729663,-1621903615,-1827304001,-1961666807,1079498891,-1480354363,
1993181873,1053487047,-291664290,1872619265,-476225698,1741677317,1066787837,2068598099,885547651,768211843,-744620149,-319358089,-1951535223,-322792653,-799226989,-951985829,-1849357575,2110726933,-1147220375,-308909963,-1767899383,-113074131,-518098112,-1787642882,-2120268026,-1975786713,1564408651,1633382422,1441190911,1029337279,-779865337,738375806,
2026228977,1049315281,-1195017097,659548037,2043953399,-2091137635,1022675199,-1235430199,1942326913,-2155051,-1389097420,-880693459,1763004980,54641977,1047910311,320855491,1615788417,-1371363876,-530233641,-1939569822,1749512306,-2101180566,452780032,-2094653974,1137502632,2018687310,-1795896265,1075152857,1636228664,-1170929076,-254119064,-1582851990,
1071016573,1098800518,1031911989,-1374994180,1966568247,183497900,1047707567,-755950089,1260404490,-1055682251,-517622240,1298043279,1429337044,762237183,626123633,-1671529219,-1943932472,-1847165341,-1711522888,206963503,-646975104,-580743041,219107537,146177661,1380513411,-521865405,-1881661793,1863365395,-45362529,-417615822,-1205941605,2127685167,
1676365615,1978350995,577592706,-1381399728,872184224,-1921416807,1977761057,-1213000818,2062421891,1688341650,-1431564673,1332580114,1765102198,57655644,1630927734,-1689636418,1652520878,124378506,-1033892046,-899309742,-412338881,-2031772818,-1478151273,-2113137794,1474130188,1162607567,921985364,-598917678,1458366404,-731004970,-1762839712,-1675680826,
-709318781,1463236847,-672383158,-570967665,1198374860,-7915019,-946999474,-260107369,1433004424,-244123523,-677468280,-122522881,1349157768,1892841653,-699890609,-64615541,-936447807,-1847594842,-1131018651,1144059596,1008011301,677143693,-396818844,-1994724776,1153684855,36488226,928629293,-969318576,-1231631689,572086209,840104599,-2100791766,
-1869315951,211052320,-1274804525,337508583,-1272957229,740064487,1549668063,6120843,-1794824688,738796329,-1807744447,286880198,-2080300346,421356163,-872151343,135916299,-1895622652,1300013057,454637972,1292575524,504834581,291062272,-594063854,-655299071,-361561037,-572029100,-83812818,178450985,-501544178,-1015876320,1803240455,-642490851,
-1050857458,235840062,1771813430,119164957,2142228447,1942645785,-961638646,-52126319,-1859997430,-1959624641,1075897218,-2028890641,1143658378,-1780433727,-428988664,1551907473,155984418,-2098542529,-2090732352,1278287066,-2040466682,2081536158,1128870722,1547081918,1542334841,-1600546639,1973823609,1790181529,-168937152,1891929237,-437343632,1746958527,
-1255198395,734968426,556364132,118449021,171664764,1091109906,1107125384,1225791744,-1878861239,-1140678447,-1526709642,-1408432320,9456350,708961600,-1869561651,2014323137,-1259422202,-233604153,-1513040170,168947141,-152940745,-1240336412,-1229955093,-233228666,1978384356,-191369835,-206558084,-486187152,380978770,-2129826521,1458905684,-1323537280,
1091011882,1743374205,1874795902,58717752,-339796626,1666822681,-1972406486,-403733739,-820686028,242141550,2054331852,-1574087112,1249545358,-1863033288,-1956254787,-278918383,-524025100,1171047039,-154102683,1086285272,617730804,804799980,-1583746060,155773721,704580730,1588265328,1440137792,1741386239,634869964,789205857,160747775,802839183,
-1886057966,262824263,-223557737,1739849223,-483543274,1870394183,-184756331,1397474567,-783242344,1299316779,1375728075,-304678849,-740189749,-283730945,-705105258,1869505483,-361152725,-908947290,301840371,503773679,417972207,-2088322649,-1292515433,1129084867,-145988772,-1623486106,-1252776230,1578543697,-408154295,-439977195,-799226227,1230754627,
-778899369,571531629,890481363,-1105837843,-201143597,1721641481,-1785540903,-262345719,-718215640,810596504,-1015623738,-1107822081,-346247830,-309068807,-799628647,609343775,-1924187439,836631598,-1349570744,1345354290,-1084297714,-114170690,-1422541556,2098722997,1282586395,1230816290,2064562057,-774819817,-673265789,-640043629,-318561221,476159702,
1311336288,-638402714,-835893484,-638279838,-833145292,-811181264,-1999650052,65832466,483025145,-1729203052,-68159559,-185533900,-79712438,-290320004,-1437148792,1726054445,-1299806168,1755141037,-1248470047,1640030253,1033739112,2031362109,-517262072,-190699346,603086118,-1424403281,320265303,-1475193807,278665239,-1290697555,642386222,-222105364,
237637160,1159794274,155931044,-1192585214,-1435822914,-1842277334,203632676,11546730,-349731022,-2111650184,-136301509,1394431372,-152950925,1927134382,-157278358,-1200351764,1452995970,1358355881,1390966163,-713056258,1994560947,-1805838142,921308199,-156166424,1099392652,-175510698,1439776980,-1790063168,1423001029,-1270002488,294893252,-1487176548,
-1108697129,999910990,-1653860881,1098231684,-807520150,1249225652,-273776818,-1019776010,896661383,436139118,-183617975,-239966146,-175392956,-1867219906,-13027508,-781427209,320959305,-1913511826,-1324056447,487719389,268814977,-238934903,-1003748600,1151738826,301661866,1226720301,-1793498458,-1928256938,840723099,1678865731,818432898,1679351617,
-840493097,510779406,1870377663,1274936620,1848586911,1258155826,-1364319235,22873986,-70658094,-1779557649,-68339877,1134319879,1542272863,1268701479,1071239903,2069679507,2056506834,-102880639,1408028099,-272188545,1912458963,-1894902939,-1309355885,759710921,-1730555767,2103530465,423877067,-1115181347,-1563423543,-1912126499,278190287,567459913,
1263087908,-2002298828,1768251972,-1918002826,1853302398,-1968326338,-828356481,1123931906,1740696537,942934125,1401938699,-1428016785,1936652041,-514682834,-1208830105,-1839343428,-1754202467,2102637964,-733299733,-1135175985,1430239169,-45475586,-249781504,-854950916,-1055725818,-1991547278,357627559,383383015,-1811578188,509277928,-2128737405,-863972758,
-943841403,1062328399,2063461919,1806948109,-205555937,1878652677,-1277235239,2119047047,2010185603,922131455,1946023835,-338396865,-201747237,-807930881,-1227059238,2136589781,1372906274,55749047,2012856259,-816383617,-203307453,-813294081,-1292529993,868869569,903700544,690153790,399524170,-602978082,-2099901080,-175304767,-492873016,-473390756,
-1643319720,-318457709,-1810239070,-1402592549,356839809,224573455,1428731814,1060616703,580782716,-360353134,-1405003978,-1225945974,785412343,506317290,1440299860,-1859192706,-1449327490,-829861030,699750782,-1553250272,-1599153840,-1888844960,1604973546,-1825695682,758985580,-120448161,167086329,-1557233255,1231411441,-1220116455,1487796664,874424509,
-1945796368,759605259,1141564802,720529452,-956121470,2125544942,219005077,688189259,-1994653157,257475144,1837004598,-1024131908,-93667354,-1900315660,-1610333512,139059714,-938918109,-1624478866,1845489490,-941171585,-458526894,-287785100,-2030797086,1622798982,76833500,637597994,1440367833,2102692050,80102097,-53703098,1149650633,1624072282,
861665789,-186876687,-2063569557,-120713224,156397928,-1878909764,1633926570,345120508,917652581,-1862246960,-1946130764,-1808945200,-1944932428,875114432,-1567995609,-1597864708,1957086600,-1298043310,-1566441434,1383697808,-1498266329,-1296958000,1914846574,-1340859218,2096053344,-224625199,-1393612680,1118653700,1037512826,577521724,-1344063368,985606204,
1973588133,-1231884099,2012396126,-751576004,-223159010,-135135975,1392037287,-505899354,2094497879,1019410877,1803122446,-2098856900,1803106030,-1566179458,1928503695,-568763940,1989938706,1712386335,1742915443,-1328219074,-153041082,-558448899,-2103172124,-1521200910,1458833741,622881254,1473301825,2101718235,132238688,-175362095,10813640,625484290,
-2103098760,1078395200,134983778,213385233,168624201,-1388183407,114147857,555622659,-191948697,-24943924,-1127801225,706563204,-1132049289,579855744,886103285,1931133056,-259683328,-443849788,-1963995172,-942070269,-12121481,-846257181,480204407,-1390745530,1369862033,-1258081422,60705169,-411007231,-1022800246,1828950850,1094089755,-1492995543,
17156123,-1399578119,-1304847341,937652238,1753142607,-75780938,1903012189,-579707467,949467263,-259200067,214405236,562847782,-1750239910,-773146621,-1782758200,1232538769,1637063739,1711801265,297519189,587792399,-777328231,2012775064,-1814402037,-17425763,-241913639,931336189,1639041208,662717833,1926818216,-1518273395,634573285,-568562443,
-46131803,-1289138323,85043784,-2125000196,1343129819,-1563420519,-764231958,1376853858,-1429533579,-494309808,-2074964970,842135170,-731471961,874380425,-1096337812,138370942,-1375389060,1755931140,-1114136988,1924689039,395688516,1370025135,-1929181324,145247782,-987558338,154931240,-1255163163,1676734511,-1723943237,1274064943,-838191349,271636648,
-2121974146,253559693,11475193,793411633,-2004006831,-536346479,-1971041615,537886985,-630580186,1720827596,-1671426469,1243421890,6686226,1644800000,-470450610,1662251054,-714590332,-949862410,-647481498,-1702912274,-966437914,-1628529666,1567598402,-585213442,-740740146,-651223051,-1177474476,-1884624196,-242603809,224264821,-1046613805,790243484,
796588529,443580294,935387809,-325292607,1821311361,2095213768,-313841596,1211790694,936046075,-878764864,-1601835472,1841507269,1770353272,1863295439,-38198800,1185899642,-150208989,-82342554,-1523581037,-1346330521,-886183653,-280745149,2112238850,-425257918,-194972795,-1324589810,-366919770,-1737058778,-636948045,-53110774,1445471010,-793313982,
2096008675,-157829989,920307902,2131453737,-698941521,1474553381,1968628172,-585753625,1886359943,935394989,152900652,-2081767299,-901942004,-1058902160,58245261,1226643729,338597815,-1106183953,-307555718,-353069956,-1062600624,-827288976,1715221203,1125208338,2113926085,-190383618,-438274208,-593223682,2146857329,-1195106857,920926016,-1232329738,
-953600124,1129832718,1462812318,253456743,310905562,739975617,345820057,701409547,-712371444,-536713026,-1110373258,238897124,206587510,136932352,1637107795,1766908297,-684185722,-754943070,313575426,-818216103,1118195734,1189782088,121910991,1799026838,1429877568,1359084475,-1451639456,-181629289,132904264,-49916298,-710070057,476739671,
-470082492,-3992999,1775758453,65553928,1794866662,1407317772,1802567085,-814801132,2052787494,1391287963,-483111393,-1025384654,1668676063,-1880681603,1903743407,-1621418027,283062822,550107327,-411961346,-1703502785,669120195,-1677287433,15014387,659236331,-135185634,662362150,1474717041,-799626082,-1763275680,2014658515,1382375008,759931718,
1086360241,-1507950099,1744231030,458225741,1995857855,-740688749,-1238849654,1085781410,1095031028,768510749,1265448786,-2096302034,1248532362,-525543385,-1767365106,-667612976,1092111744,-1136621601,1407338323,-824200354,1474451447,-1619232036,-2039843378,-574678826,-627636071,1957687249,-304935089,1435496406,-271224748,122448454,-39209771,488589362,
986435320,-3208735,-203566679,-188707055,-1628727961,1475935014,1862104870,1333466102,-1964090115,2146166737,-1644554129,-250819440,483080421,-1292090204,1609387773,-604161453,1755645260,1324120019,1024870524,3034384,897747121,46691616,878861335,-1814498106,730797384,1319635964,1253460090,-894810343,1794431023,-1561500632,720989647,-1744909020,
1907024136,-390428612,-786247928,-323830657,-1056455920,-332228484,-1824196848,1813383804,418046393,-260834155,-33555991,2108930447,2046814441,2098698399,-1856194199,-1129934611,-1159005979,-387624771,-1198675480,1034568977,-1176503891,1533348927,-103052280,-752431883,1214897530,-1719773595,-1973583442,-94301683,-931426881,1400049833,695897407,-974663959,
-1976616416,854471126,223032104,-389535694,-1940117920,-1677318678,963458166,265747231,-274121178,-1750108170,-1935922948,1259979778,202252860,1214898186,-772907953,1767547436,-13975674,-1759043850,-882361060,1080623682,-412995212,248333122,1772714853,-1821706230,2103669732,-1867747338,-2030541452,-2076354608,835112175,1531797465,13761015,-1223119639,
1020565173,935981023,-1126189123,-1076760764,-1100316741,-748421146,374764205,-28208142,933529316,262817646,-687753278,-1787633603,-166801652,-995066379,-1764931644,1224510227,-1860140288,-2119040835,1091600712,1763840061,1133414664,1956778141,-2081685112,1078038531,-849732414,-256706386,-853886641,1262098495,1264262539,-236766019,-2086984247,-100755276,
2053357479,-135537163,-1700446234,-98716698,162870878,1262436645,1096143449,-308396007,1509685637,-1243104001,-1752617398,740042742,-1945367538,1653237792,-753447793,1801142529,1541132737,-1058062601,-1634726899,-124176490,-981070996,619245740,-1627517880,-638380719,-549804558,-1007915279,-223539666,1705627189,1798256238,1642081312,795555680,-793490254,
1078269064,-1786367755,1435492448,811497519,2044410850,-1818727361,-745821013,-795747184,-1841944194,1600373458,290625751,726221497,1616021654,660817464,1919028759,-1751909738,-445495442,-1824991810,1651561638,-1086597640,1106982,24888968,-754863796,-1741399170,-1787068319,-190519107,-303889800,732481656,1340797190,-773190468,-1251957511,473828087,
537243737,222987112,1910101297,-1270105687,1592137123,844731055,-634375633,57913838,-1841657317,-403459557,1416237443,-1306553141,2128812919,313284238,-42910081,-1686308418,898234135,-1862861329,2129159527,-583115302,1055005943,853368210,-1352581274,-639402194,-1818284966,1834615421,294570203,-519388904,1223067849,1611442705,698688890,-2115449300,
-2025770548,-1054375998,-1726902565,521545033,1175356250,797336584,1967986353,902756356,715933784,1133208144,-1940533834,-1215698807,-1907195954,-62915102,-799796585,777143147,140478526,1748070611,1050098476,573334529,-1651465636,405302306,743152816,989853193,2138291062,-625586964,1663811490,1005598135,1261485483,-55528261,-1910035193,-136000322,
1927211771,1908703123,-164614865,2143842054,1032940332,216264046,903819445,1508531839,550879433,1234043281,616939944,-1232672751,-1617822740,-29972117,1079886225,79847449,-1959228278,1259415361,54315912,1735630849,-784561784,-284032147,1108756899,776069135,2129645981,-940703869,-1899269148,-693272634,-1099730827,-546349066,-77388188,-1610704522,
509633510,1063886011,1800663996,-80312711,1250676646,-1158893959,-1642024140,1705677544,1675160000,1046666430,2080233982,-278492291,1806686714,-421228259,1667939594,-223995650,1509508587,508218874,1684771955,-1369137540,-353675781,-354116228,577285602,-256438030,294937581,795565050,-1730874889,1045416670,483455229,-1274196008,411654385,-1500543005,
-1023328955,-1898743090,1739713109,18769154,-427636009,1893493769,-695439916,-258385149,-176499835,226467214,1803454991,-954117287,1660869890,-406743535,-693343482,-169887101,-1854048394,-1653284978,1650578935,-1652114338,1793679102,-1012474252,-160673844,1671292802,330117956,88729986,-715824304,220163063,-2102637608,1368157011,-1767082175,1697473282,
1090880256,753181039,1111471950,867233839,-289456280,1672557327,-627324341,-493058025,-715886339,743489900,1951459717,-1233750791,920293258,-1131382895,315933824,1946157208,-483248283,-1854679874,1150288516,354023373,-367753684,2098812569,-1974293460,1924259460,1845147118,-236037379,-341204631,497949685,1806533984,1239941523,1069211760,-626127695,
-554997878,1353276706,-957698289,-88235150,563212404,-1926528147,1842600433,869197316,1516946816,1945099907,-340820632,-554660009,-1423626190,237994876,966120181,-1286971011,-2035981606,1263491906,-1385168901,-118113163,-278190469,-1970921609,1748353755,575316321,-987138284,243267850,-1110147371,-899698570,482624093,706044792,-1025745015,-1497190078,
-1726538549,-1349746824,1216806985,300608520,1502262600,-802783499,-1701983073,231394889,-1375656451,-1652918662,1091758981,-1167949064,1079020936,-1801319815,-1979449308,786557762,140263596,889774106,-1946079004,757768328,201437892,940828288,-904566028,141291048,-1910422981,1982990394,1218654217,712114232,-1979645893,1244809514,-905505733,732971790,
1095954853,1846706479,-151045482,1471674422,-420511748,-201511338,-1903303719,1636598531,1902035879,1012199102,2055146850,-496150918,1795140718,-1045342666,-1350121221,2090413809,1956038213,1812521980,1827102326,-1360232836,1809024638,-1963032708,-1567175987,-375872554,1895648840,-417235994,-772407443,1875495679,1173682752,655255551,-1311715639,755049154,
-1530018895,2135668627,-689158247,-201065529,-1745074424,1821250551,33411927,894050779,-1732120637,936608502,1370410441,-36656621,-743559671,-659211326,-626209397,1642308547,-1413940863,1845071985,407816345,2093908875,-53588087,1890336531,-1896037112,1355919312,1263783338,-906869072,718900267,-427718905,298912966,1750714155,433760683,-142549387,
-710890858,-1080657385,-18337892,-980570158,-1907604968,1705872064,131868172,-1000924682,2123173379,1893547825,-1767198966,1955640211,-1970532471,1688216339,-554776695,-528153301,-1381003151,-1194495459,-74551511,-252282731,376351657,1896886919,1411019520,372723886,-1990919136,-1436893138,-249645017,18534558,1978774388,-1336161106,-1244515065,-550577795,
1194997110,-1976304018,-139788386,-889816708,-286311698,1790929724,-3182612,1101983251,2027865072,-1595781991,-201329202,-285934594,1676524906,-829074570,964614431,-750747589,818858737,738746509,-1395263500,-523862979,-1108629786,-938050251,-1985146480,133180,-256615155,773439919,297196639,-1437007624,687246047,1741219353,1754745897,-2083997874,
302869192,-793264493,-1668455664,1439543048,484471686,524545772,268037902,1257748355,-2059848922,456626182,85291692,223518983,487191172,415427007,-1891092703,-2063630573,-832456798,-1799907286,-1350868424,1299401202,-849940188,1282573305,20980273,183952229,-489690887,-157509613,-1362165219,1386024472,629303359,1658686676,-1609107401,573759759,
1196926983,836149332,1751089696,6055999,-210043060,1528247742,-207221639,1569057565,-280641673,-1622574738,1224182292,1114202891,-361076882,-1040974794,-152277683,2124249076,1999015457,2101832236,-468771305,-993429694,-159482225,-847645634,-1334139195,-48481314,1926220329,1737303861,371147542,82177506,1461221286,-715825682,-1310626207,756643831,
1339648056,-837529760,-1647236357,1792411365,226790131,777947841,1082643441,720259295,-1433646466,1830643536,-36466873,1000144257,349540087,958330245,72371423,751553033,-1330771239,-308725935,-1265576179,-242191603,-719516913,1866687277,-316944511,-180196179,487622215,-612382880,425497541,-805571027,-916611957,-1078249935,-1907372789,-454115803,
1869836778,-1833796569,-502659924,-927834636,-1475951559,-390574895,-171799200,1923292703,1824547544,-930666495,-693311744,1821522387,-928726056,1858187471,-865094720,1143800878,1216937241,768868481,-1750159488,1817392839,-1623212141,-314400753,-1945192704,-1398647698,1347471747,-401230365,-1270702202,-1240352794,-988515450,-1856835538,-984045938,509735167,
-1020234482,-1452176348,-966728319,-799622918,-261425759,-1808360706,-362636120,-1171023900,-1621461093,-1720410946,1114137415,-599671853,1164457858,-1788438273,515547342,-1080045584,-1122799049,41190588,1143060151,-1633510274,706897819,-790241862,-1360524278,1387100098,-1922722651,141466671,1061294302,-1736504067,-1970403879,-638187463,1856152513,-381743232,
-2039547958,-1320933110,-1876265599,-52384006,-2125913088,-1942699026,890419061,84058606,-1311623067,2122412388,1032009845,1893518484,-1115473291,177753588,1051615091,-1278697340,-478075538,262888432,1771309116,63522065,565643320,-1547091199,1635211662,-2016798615,1004468552,-309142533,713026877,-526383331,1266153979,-1201273572,184544136,-274292611,
563667512,-1374420807,140524195,1052454950,19713718,196096130,-701551808,1731177619,-1331904405,1644437889,-1243539865,1042043366,216336982,128743427,1270707790,1131335703,328756619,-971956287,61393219,2132476869,-2098390782,1185554958,1476098894,-214542273,-571177751,1401549777,851414948,2004978561,96811852,617120300,890955998,1532651709,
688118909,-393738336,1762018337,-259992518,-1419558792,-1979001798,980633835,-1551856520,748031101,1858670480,717708659,-213023096,587151659,-1454405156,754425400,696780528,666314920,734561404,1896726212,-1178016406,-510122280,1262725466,-1029256565,1849688849,-1745135870,227158702,-923986214,256799603,-2007174336,415562075,-1637087288,-115504238,
-250071125,-402999210,-352704757,-223232142,-1363079433,1444746051,680610558,592044552,-170724395,340422141,1016236491,-1332453640,15895719,-1295950272,981171974,-470681074,-795425271,-57608997,416336935,-1264746776,30675575,584013388,1621572212,-2115345858,497011233,1708109145,1691717222,915238381,-2058273180,191762030,-2086194476,757727357,
-2121991654,794722824,28054227,55218882,2667283,253366914,-2093168688,-1353932781,-549767881,657711086,392306519,1963406,401084167,1377589706,1424182935,-1141775742,-277199480,-1008066574,1533568843,1404960154,-1769991001,924801482,1118248198,-1309943818,-1986068280,-643091887,2044561629,1103981593,1036484716,487550709,1703270908,-1950478763,
1988886592,1628070306,383568117,659694849,-607199861,-162290287,-1751330421,2098666387,-366015432,1988683456,136251510,1126819400,1783786598,-1041502660,1936831596,1496488695,1550765959,-250582289,-1422445482,-873981336,-359435708,-2102466436,-69164344,1228672790,1601958821,-1334530898,-1889438214,-1104733442,456846715,1552029433,-756232701,1891705730,
-1841706169,1572601842,1668539789,-1888002453,1617418644,803403361,-77795944,132249192,19981192,-2048255485,1132261771,-681403877,1130486153,-546860033,1244221840,-2031996821,177320186,-2143518720,205648369,806787247,241739195,-1777984381,1248983350,912651010,-1970516387,-825736934,-1669296039,710349211,79727025,853384577,1053369248,-1761815741,
-1426375620,-1071117344,-1119704847,-395044713,-45968911,-333669685,-1413219871,-1430419204,-1342608325,-742433150,-185475749,2132098439,1894096115,-144728121,2110224503,734577916,77455985,291260369,365273058,-1626465465,814608115,319778179,-41432837,927788749,-1772583406,-380402080,-2113036917,-1085099513,-2145647733,1712566281,1482546335,1330741517,
1343738067,-1345412259,1905783156,256533677,2056344916,1858660161,-1193685825,303095232,-1262382091,-1084818229,-1537969515,-851212479,-396606468,240224192,-28191817,-1306692159,918813847,912187367,-1266252043,-1437473408,-1261121803,-1571690526,-1143676937,-1755497023,1944953713,1981544881,-898270208,-1302380172,-365595594,-1988118202,1484124448,-1592850217,
-202400718,-1172778627,1289699188,291699357,1272921444,-579395778,1140486015,-1017133002,-116273676,-1118675873,1932970413,-1327253508,-345068116,-806287460,712859964,-810739886,818895581,814672061,-1398861572,-1584634031,-1110186244,424602933,-1458714892,222857810,-2115535501,777666637,1638829595,-1436921539,-1567323113,735098115,-1574797518,704688963,
735251581,-894613664,2027244605,600884228,-128283627,-1560699667,-1159529439,-1833888532,-1432793998,803018625,2080232627,-472057725,2137518563,-134432601,-1121405186,-1934665858,549537979,264503617,814536915,-1287249663,831317913,-202621661,-1400438760,1072205692,168346635,693143048,34101123,-315379189,443408003,-465862451,-1927375223,1492355516,
814599378,-37219375,-1044683424,1954844187,-2087384974,1681490788,22534399,-1354055575,137032973,778274446,488307081,-1338980808,-1509815257,850415472,951229991,-1286041457,-1506397940,136434794,1951585389,-1860346376,-1534949775,345864160,1083188076,5779854,2146661798,-1866699588,-425589658,-634561040,648351609,2047758149,146029677,589955552,
1477232563,751479695,-147130490,-1858601106,-416467186,346810223,314341022,1138439009,903863989,1054669775,1249605103,-1007813570,-1016384214,-1025040782,-1209121141,-82526222,-711616777,793569135,1783525631,-1865483012,744641776,-1695801744,1143892726,-663268866,-1684186480,784526283,1876379738,602696020,-272403363,-2006005506,-1783504536,-1171855114,
-1277780869,-355153955,1894931839,2009679833,719318379,1702962833,1903398057,-469706596,-232090267,-1308599013,-2075061307,-1775409440,-1369701194,-669167664,1962069031,974221705,885965943,1980288721,-1765665227,1043983840,-187562426,907673536,1066448119,-1155663688,321292337,882441179,1054997792,560823784,-1763633119,135036393,-1141771172,193808562,
195116727,-820281212,135764155,55083028,60102780,-1960181344,1788267633,-364216191,-1620885581,385260790,-1893190053,1215411582,1076303643,1112052556,1300199246,-619719514,-28707871,-1897620300,1265186643,-570442250,1314994099,1357887950,-1888770102,1480399863,-41105186,-460675243,499253502,-1628656004,-1479642160,183904786,-1646484532,421431357,
142394287,1361131316,-1552720602,-572418374,309387397,-1089039898,812057634,882144995,1703753279,179199790,1067931067,1405979806,-1775749366,1395628262,-2097806775,1774838544,-684458095,357940207,1383748559,-1779582802,-1016453304,-570672134,1937116182,1311867740,-556017748,551911324,-1478933548,365709126,1977315412,237914990,-113921828,-887568323,
1002790007,617140128,-500214492,-474377034,-470335376,1763217832,1937168561,-1354235783,683560189,1740711824,-86020741,1525497502,-252257173,-1357570596,9935093,-1408596116,88007169,734311851,-452446330,-1181811858,-1441233205,-753451725,-2071540085,1816700864,225277830,695115823,-179751998,-1992394178,-605539384,-650741641,-630403189,1826587520,
-1759616182,-801689513,-134221905,-790245473,-135086393,-591921161,-1242948842,367001415,-986647286,-1993207506,1908863369,-170966599,-1211381311,-33682441,-2069274861,-1245548022,-242141828,507149274,1620887709,621379969,5556404,-1352857663,1120238614,-1519148501,968550632,1738629082,-1971169093,1743016400,315083893,785237448,2074204517,-1342521154,
1793598930,-85411054,-2105393942,-225924398,-1987772304,218628864,165147348,727335969,275456341,934080437,-2038421684,-670029888,-2071713263,403727181,697782509,155894141,-1776239995,64602118,-1760512500,2033394135,-1760351707,1888608559,294586521,600360205,1567834030,-2145461210,-168411554,-1961208519,-1316549025,1670931501,1180670103,1883399460,
-714102873,-1756104745,2147434334,-772407433,-543215906,-105044205,-1634153570,-142095029,1448640415,1467743743,2061418713,-110618895,2053803138,-187392399,-827668814,-252051834,1660831628,1466101146,1658635513,-1945315375,1787282609,-1478193579,-290558432,-251805882,-1865072244,633596255,-646588309,1573904339,1777850484,-45342723,-1079938439,1805282226,
-894747382,1307122478,-1951520676,1095680862,28256855,570968127,-886360306,1651577534,1998287244,-953530382,-1168110573,1243160450,1961941511,844959887,1017253655,-1079039316,-635943864,-899527213,1382076051,-1797406781,13682311,928897482,3230727,-1135959059,-2007757766,-809303216,1280622776,1200619009,-1371462068,170782252,420991228,-1958851731,
478154482,1755226947,278218688,-1488289184,13371276,1360474888,1890096887,-1353084465,-1878062072,2093102167,201851464,-1472462272,72918912,607415872,1930483140,1025200526,-1127405866,-199461163,-1988096914,1622892612,76563028,614005825,1452380884,291001731,933632723,2126196181,1960971845,-1559466880,1521683547,570436113,1016584445,583035520,
1221706037,561645324,134333040,138746016,747918976,138620104,683786877,143936898,1931668811,1917888552,-501168253,1056027594,-956029168,1210229322,-485187383,168166776,535490777,1364503560,-697633855,-36390673,-713377855,-46810882,-1015499480,1563925492,1412544291,-1858010094,-779504254,123236539,-242276946,-1210403681,-448060126,-1720919522,
-1767307708,1646146114,202138224,17588363,-1660176319,1359085758,1100036669,1757084060,-1836970493,-190812463,-2080236969,840459648,-2062369003,917529768,-242204977,944902645,899254303,1711302593,427870213,824705153,494991717,814671024,360745331,1066454172,-1809793630,939777989,279723153,571605409,270829827,-1610440567,1688615218,880813193,
1794034152,-236434283,-2113916664,-291958282,426323969,403708316,-912018331,-1196801281,198101209,-188438831,-2038421898,1486628802,-1785716099,404283789,-1852417844,693797229,230795465,-339337487,-1784402430,1270031655,-1782832378,1883337127,268081002,-255273843,2024455346,2029952572,-22069492,-524708320,-113367537,-483302339,1717188866,-1327340376,
2998897,1197359898,1736405823,661355034,-1351996722,-22070409,1201498748,1836034842,-650356473,29737770,1417329095,-1753262920,-2107994986,-134654016,-900903892,-1016960256,1127226798,-684852374,1536315748,388973242,1112953004,1610187408,1242391674,1239616274,-1451810356,1470835292,-482791392,128582424,1140582456,1331728400,729513064,-677245424,
857407113,-1231645520,874044407,1041040328,888785629,-1248237611,1912358985,-1253461103,2008077895,-770515018,336595623,369747914,370150566,873586368,1450724647,-1336675195,903121655,-66224173,234886773,-1526862674,1312847406,272465856,2008362613,-1688338670,-1690531295,886661081,-1922715167,888015180,1297200160,346844592,65125488,-1096389135,
-1897169797,-576627022,-825867099,1215073808,1180518561,406097524,1036251317,503429836,-1955647702,97476246,1798259768,-874443950,1799315578,1138989430,2147089379,-140527641,-370317221,265177407,695156442,-1545189356,1877901305,-1015595721,-1125331989,-136529965,-2092084476,1325961478,-1311354531,173617502,1591664525,-724173670,1524453345,-459425853,
-344509137,-979254664,672086117,-2132452310,2017671285,-1873191286,-401725368,1101483064,-835243396,1110234922,-464369034,-2110171864,1651646038,-1547082112,-284984484,1244449298,-904051106,1177062682,1282492022,-2104132158,2059408630,-1900152880,-2010222670,794937922,-1574698319,2013438536,1553220217,474852344,-1978939504,480557664,-871942288,490492672,
960483452,633718168,1633110117,187514995,821346803,1122600633,2044958755,-1306444292,-1505935813,-1891724542,1761046711,197986563,720460155,-470841342,1978218358,-1216349010,-8788097,377409475,291634163,-1085303871,1617559443,-1620867038,82178994,507412451,-1106980723,-1093213354,-1790888715,744464742,-1270746404,240042050,-670248207,238807891,
507145550,1080614178,-1015364328,-986539408,1081264563,-1540715943,2033905952,199924332,712656808,-738910574,-881207877,-583755246,1802883297,-1620601858,1295200628,-2026908954,238315110,282865666,542888185,973477936,180473081,839257123,1554332565,113861930,-1778365867,308207746,349345901,52102360,348429049,600532897,1049053901,575189760,
847628376,-322305183,293979601,612507675,-436200118,646582394,349622517,51194968,-2138158951,1862402769,-385884813,881719946,-2492701,-20971530,893476852,-1474637201,1630547230,-30386187,1622043034,-1572282336,-1298495278,-1900206222,-23978713,-1292273484,489812677,952479204,285799904,-1205717514,-86012495,-66813985,1042885920,-155349900,
-1841320869,-494570096,-1736144713,789332889,545443953,408609948,-1329427401,848682177,-154427721,-208274045,-1092141513,1274670470,-1113951617,1130221046,-1099554827,1516109299,1678233717,-1102198077,617046741,-1401961103,-43038987,-1915900062,745653397,-1893905055,58552605,-314338800,-2111711856,-1386773679,1344753812,776438598,1209529406,-2029521836,
-175921993,438015981,1083672662,257651757,1653022462,588408321,-1634547469,1671032321,2086782827,946994351,-1040209982,-1402750083,1769936474,734167864,-1168969317,-234741783,902719223,739962031,-53220109,-300646841,-23093518,-367723217,-1225607287,-200003080,1957754421,643267758,1966405517,-1202586393,1436338067,-120455697,348686273,337509827,
1777018984,707399548,1216660561,-254506356,-1036049172,-1050272232,-357841189,1252509466,-113034177,2136053628,1345063433,-1056950669,-1003614453,-1068453368,-295030997,-55074825,929116704,-2064208859,-2073839869,-925696913,-815171701,-1061880386,-1251432640,1419525621,-85287465,1716683809,881219413,986767970,933118495,-1026429286,1993376715,1342519240,
-608296638,-1066048788,-687130045,2132431294,-1114994055,1822208151,-1873849671,1621945617,45901656,-928224247,-135074393,-55223881,852527615,-1122383899,-1811743791,780313417,-2003163076,1762419304,-1109919548,589383741,-1680217860,-82590570,-1667901011,1045669013,1261577762,-1720596948,1262206728,-529362900,-499403861,-1047326677,1244597507,-179970409,
-1312355724,1373234094,-664855441,1186686214,441621564,-779000557,-958657924,-782414973,-173597087,723018093,-39908756,1676305716,2048855676,1674110773,-421640584,1140349970,-357585316,2105828199,-317763916,-2114394516,-381744548,1834510197,-918931704,-919467394,-248879870,1712356076,-1422165119,752908142,2000645782,-66038930,-311787745,-793371398,
1920654787,-4088653,-495393333,-707346693,-479661621,-1108959633,1795290568,-1658347656,240153500,-1988650622,1115550593,-45696261,-1032195704,-580478245,225042824,-1668866237,934515255,-2038640214,613759095,1795639613,1049843454,1136978973,-88281179,1380841345,-1870815371,1869460895,-425388978,-1705174415,-370707107,-1544754944,-185949444,1230861587,
-1439757202,193820512,733430011,5000193,1464395209,-731410818,-249382853,-1777099780,-1094250882,2141017682,735463677,1129907984,1130918316,-780170058,-9916525,-559966221,-299422602,1041070050,978804407,-2108897535,-1127715596,-1989161008,847882261,-1136841902,1072001053,229204726,818167954,205539280,1917372449,239101268,140597616,792122076,
-1828703603,-1340638034,876785813,-1860928022,-1220530683,345341610,1895836854,269614508,-719931645,-785368902,1665157760,-418811919,1811547536,-2082347911,-146655968,1408621806,1276417066,-769614694,1098040498,-1887445006,1659043314,-1494368552,-966774774,-860546326,-1129893043,-1540768610,888234224,471107794,1280374257,-1136355127,-440256656,338977018,
1892863459,-19866375,-17576525,-1242521879,-346581660,-1518807444,856881651,-1209921432,2018625781,-1253089583,1788008953,-18370951,1809307833,-1898657924,672387252,-1769257348,-2146155847,222794185,-464463909,-1130955427,250207995,-364576907,1654966841,38397770,1968471814,661989775,-723126329,-1781679113,-899066024,-605209657,-1633085620,1247253314,
1774342461,406800236,-1727844315,-1437447955,-1249736023,-95151721,-2067396767,1623459970,1638179144,-1582686095,-1266384268,798516429,881100543,1830315141,-2138577463,1661503496,1227487712,-1531802987,-2093113078,1294996303,-616746742,1700438158,1297782024,-324772815,1120058859,-646146507,-1557483902,-785350099,-1860260986,890373680,1280967942,-798909304,
-225326738,187422151,1911933150,695648373,1083164984,1827045929,-1767050343,-744081590,-92540945,1632850951,-373307157,-303955119,1774180843,-320698595,1257814963,-1499597569,-1464371586,153731124,-1134716680,1061193473,5230009,-1572598517,-121274351,-2071173309,83917910,175980970,272652983,-1705930682,415685311,985372482,407132735,584685378,
-1893056978,-1030217072,-2080099776,-930567982,294494960,-1811537663,206389969,1825235715,-148850938,347143150,-1786761661,1209533634,-2055075310,704651368,-1328066917,1808982273,-707545792,325196150,1366353667,-597968417,-1016965877,-831267890,377025667,-584116249,1788750296,1872772880,718474452,1200409941,1708548188,55470168,1976617428,-2028271495,
784360404,1480858770,-1664333951,-326849855,99710757,-1943567362,778829575,1513305830,293897747,702251861,352727809,1767022735,-712593343,142510335,-1242483371,-1865517572,-1790447087,1758980206,1429617284,427475439,-713084519,-1923479185,1433830296,72233471,-1245383034,961147181,-1270865017,-1809913226,-1252633890,-531568374,-1864882745,-1458392721,
-1946078185,-2127203314,1987245718,288586926,-146755817,884309450,-33387344,-1341096698,-719968482,-801552194,1382878487,-1764926599,1937577291,-2092068339,1027783330,-126575475,-835287290,-1875784534,1080637346,-1240608670,1626875099,-1624629672,-1910326262,-223322884,-584981664,-1608143682,1448207840,-1790670606,-864950816,-721113890,-452970656,-1405285124,
-21858405,-253649744,-1093513741,-126564402,1968370855,-1623533842,1833114723,1021474556,525395099,2079431824,-693437053,-36455457,-684933205,-804353,-1988019924,-1092153483,1072953915,66436157,936361979,1922551223,-1614168135,1384511935,-1413265359,1996310517,-20859522,32365759,2009215998,-1728087876,1927456237,-117457761,-423752352,-324025014,
-1341933968,-2138259679,81089489,-1341347135,80032836,-2079429792,2040092375,-1957111763,-1236138155,1046394863,487613261,-1206254860,67143809,940048969,1077479057,-1580046197,811270551,1658705879,16785517,941245072,1050624,840057344,1092063761,541777963,-1813873666,2077437079,-174019037,-1442677315,-1473996727,574630061,-1717397391,985688867,
-2127104673,692880044,90346915,425875628,824743331,425203702,-1448834823,797877713,-1855491996,-1809678116,-1386012555,406670792,1011036277,-1703099176,1244339562,-80560452,-176004893,-1036579600,509778999,1926827468,2143514743,383765468,233043326,-223404874,-1160442627,1454000080,1994493140,-496153427,836897397,-1979318252,278774009,56548480,
-1989953238,1320786677,1233349468,-1020339746,1185117087,-1154942970,-869315720,686673432,-176505041,-1686856209,1379462027,-128970625,-1037520118,-1522363701,-1094220277,1955642113,400405004,1081773503,1161885635,420920503,71366602,336992402,-697793664,-737823357,-427291854,-902448944,-1795153313,169765107,-1795149099,840346243,1141941204,68236162,
-1891716538,55046931,-2095760860,1560764758,471606180,1380314130,377294382,1394473367,-1582484668,-1707314395,-1388498316,1101677926,246227806,1139401731,-235702,1367210259,-47694553,-1238602910,690421970,-1888746912,-378660844,-865516942,1073378408,-616605066,951314009,-192610476,135719345,775325000,1274476971,2118287852,1910169904,-1640988931,
-589220585,-1743651642,-1110272349,-1634665273,-151871749,975043311,-156582437,-220873585,-171458841,-1096890307,-55626425,1504214524,2141136503,-1008874057,2104688631,-753042241,-183440791,-128532500,-400086567,-1398144155,-920690680,-916324296,353878537,-1944171139,343269110,756393039,-1253967177,1045607150,-1660231015,-669899088,-603028557,1209080387,
-219481296,2002227351,-553844952,-56247470,-1225492692,-1792046285,737489440,-2026167341,-201655057,1666865148,428621448,549495376,-1651629048,1084639346,-1879585753,-505895548,1941912353,-443476042,1124354089,1626914966,-945404119,1825055707,1392404737,-471256675,-67146388,-947167851,1643964798,-442692459,1910859886,-196276272,603224428,-418737551,
1048168957,-35832685,-972234408,-175202624,1427763553,352770702,1633276151,-1810661795,238678591,40882947,70840749,-1272609080,106445196,473409314,222630414,612875107,938916407,-634138322,-1231603596,571303348,2056670844,1408887952,-24412886,-218548336,1568643829,-740509537,-1360449944,-1665266832,1752658428,-76257124,-1091918084,-90435629,
1739075478,2117470666,-1628105740,-335237291,-2054134092,1257087808,128840604,657855202,1925254786,1687451382,-1684259014,1238417714,-1819706447,1644749174,-201833132,-242181635,1115775432,1173228112,1139599112,-1041102721,-1049782911,-335406099,25157953,-1805510401,730746074,2122416720,685689271,1997246090,366226670,638518926,563566619,-1488814020,
269324531,-2016663743,1444856824,1132965379,-690696715,1960160963,-1840085877,-1114333727,-905346282,392225539,1098828168,-1890868357,1611977616,-1379499317,-1673431405,-1944756637,-2055875913,-1656306741,1078064048,-1087724893,-938183528,1546897290,974489841,22244913,343005847,1063191031,1298199203,-1655525141,-935850584,-1942811669,1496633407,152848129,
1039316973,459496526,-1074872341,-386363715,-172051447,-365917194,-305743091,-1686693913,1565583275,158596652,-5325685,-101516417,-173064343,1509095679,-1824602162,-839019017,-1787102295,1375190062,-1626358903,1555186687,-1961921655,-638179265,-847641600,1424823243,1968371630,-784440274,-1219871778,-593856585,-1706386786,-694945869,1045041030,-1060708498,
581486000,-420937176,-2101719765,-962878622,-2001452936,1232749504,1641478385,-1352007428,986860413,1626171282,-1903661248,1959803590,-1942213335,1577265994,1756680445,-1454651395,-1231682949,1267533136,-2130592253,813705253,246097738,1887501631,-1439854677,1611438064,-2128505338,1232135469,-2059061306,-1973432277,286200538,-1954860871,-388051270,-87384127,
982044377,-65889101,-1748973679,-51081247,-52365419,-38610971,1033360963,1072393469,5436811,-218915655,-1829702269,-27813413,-1822368381,-51142683,21336267,-1394441363,435728810,-644112613,12644714,2141690047,14742827,1387436059,333773055,1996234035,-1705176612,1256520347,-840258054,-668006383,1759687017,-202471235,-561562520,-353917673,
1161460522,-1032810434,591109007,-542958758,242907819,-739887086,-1003740344,1822828850,-717605618,1378933308,1053408559,908877036,-1620396642,-1326686686,-1020385528,1235429950,-893700210,-794796454,1609057386,1119706576,-707716793,1042043612,227228278,481983102,-2021457704,-2120218094,295603272,1635813393,348816577,604302985,-1215939519,1991797822,
-1651000868,-1267037202,1965751257,-392889154,-181490725,1823620841,-577839151,-1425084820,-818255877,1122417169,-1032259701,-856540225,-1008664701,-29901825,-449874961,2124937839,-1652869333,-789398257,-1218332758,1578597871,1592391594,1343601839,-1079649308,1045266401,-1243439529,729800870,1996763998,-1686242113,1609279462,-1732264781,-971241818,1338637057,
122956484,509075547,10224350,253124609,-700684406,-205460471,-970194037,2092790547,1394955162,-1943664516,579210768,1336042147,-595703922,1617030153,-144031925,2107085302,-1082569372,-855290726,-499954416,1707095563,-8653553,-1041171266,-202754617,-591585794,1962281209,1711394033,1182192117,-1795388224,2111759334,-671277574,1992912740,-710068236,
-1868996344,562832377,-2147425952,-469628167,296869920,469893613,1260606498,-1897772468,968940,218177739,747520172,-1677490480,-1945745356,1008740040,-1070648564,631382094,-953994460,1333989990,-1372118996,1395737995,-297847940,1380579302,-232178901,305770915,1198211014,-1866564410,-1368838572,-2112327390,373633942,315455618,-562485499,-784508622,
1020762677,517789397,972259007,180997901,2129690501,-1141377818,2102904533,1048157681,601205188,-1923120169,1104278401,-2084143057,-1052117055,-571311625,-1051393920,1089505561,58247946,-384593125,-747097848,1966247982,1362276842,2083655871,-653337733,1775434807,-820448374,-907119841,-312754233,-541164682,-47478433,-1006770113,-1425049779,1810422907,
672548403,1331234737,-495364861,-685132214,-420078281,-1891921051,-1396756370,189506151,-300149197,1448996746,-832014417,-1820460866,-144623761,-616587274,800004734,-1955728581,1321727441,-1779647105,1458091989,-1778384906,-18217007,301826042,-1356628362,-612543626,1032829137,1995090655,1032554106,1185868352,1876803800,114083916,-1382419847,-8468355,
-2121457144,761930600,-1047664832,-451106375,-475125906,1926899900,-425191665,-27873110,1360920586,1812112093,-785511158,-374168403,-871487704,-526324675,-739592884,1547079932,1935867141,1637972604,-211657403,-638559124,890761829,671242303,568995904,-1263395588,1238525382,-1860150212,1842522468,-1330539460,357705390,1496390718,-1550444490,417341992,
-1461665767,-290713871,-2012851167,-1192583971,-515509979,794729726,1238497391,-1506615828,98933777,-65746072,-1637073357,907673354,-201181521,-1743004178,-1185578759,676791701,1183312453,1946258137,898621909,-1454592861,-1312694027,-1660156942,-2133669827,239208008,-881070678,2031097557,54323626,1807782409,842316842,1947308821,1664674110,-1591569784,
-854639530,1221353994,-955506494,1108697168,-1943654158,269297230,1209692564,158132782,-166840568,1275127626,-300005818,-1057888392,1686243926,143222644,-205628707,1531503367,1157935639,952420366,-513681710,-1997276040,-497021418,-1349650576,-927962406,587817934,-1771240576,1964095750,68964884,274042346,-1908051434,78474050,-728406508,21525250,
-1977402002,-2120152200,688339053,61623354,-1442119576,-803140206,1208426536,1219266576,-1410657192,-1028848016,1860182647,171775360,249561214,-2111020032,772221304,2057732096,1111295398,-694136880,1786274854,-887022254,1789473910,-965896384,1332181502,2066599086,1277769969,-726922687,-20896647,-655587208,-133225646,1084516988,-417487244,-637698768,
-1903678900,1210208630,-1786581287,-300269423,343966353,-1131366255,93168416,552217134,748298360,1115767568,-426645733,1205057927,-1776167981,2081797059,1636249840,170066028,-1190566853,1660100352,-1645609085,-135021401,-1778784317,2098313455,526982947,646313455,1999674485,1230361866,362986464,-1307208555,349013188,-232945517,-729151940,1792605327,
-1074086217,-1093290346,-1202429791,281661376,834723985,-565318171,-1203368777,-1261312292,-1251623209,-1619018770,-2029757539,1330358101,1342599572,1464051147,1324693166,1140719459,-1057121327,2129963341,1261252888,-1880389334,1261400344,1231522562,67101272,-847503533,-1295217959,-153800637,-2003879248,685810189,-519560612,-911070602,-1721895812,152107799,
-192893705,949089765,-1262039883,-91161427,-192768972,982842861,-1228892715,-1299123007,-170424477,2115665391,-41515488,-386732099,-115465620,1632889149,-1262823487,2090661243,-157356479,1234336959,-1607725867,-54393019,-182514019,-1983060113,876515985,-518410897,1454827336,1812786478,-1873477665,-199428378,1564898971,-1260886034,-1864469737,-1609764018,
-404198785,-513603426,-1325088623,201789592,822364273,511099032,1776654513,-1171068771,-1142221214,-23250209,-1909639578,1265494278,233648766,1131391014,1467822830,1535104438,1993189584,-1159328779,-1880150181,-890816138,1743748947,-1025107597,1165814491,1326186847,-1601656391,1963038466,886720528,-459888575,298867665,-447307772,-1067704360,-1890393637,
567788196,488089706,2092637818,1858024494,239028990,1670998035,-1612856332,-974354431,1648738892,604553529,2046003306,599674940,446680270,1654412817,1782891153,1713668096,1074056064,-1249238527,-1618081688,1703703060,-608216504,1834483868,1367012228,-1386047428,144689659,2133197425,-73412989,1870677505,905693829,130705293,153927839,-145172291,
695670845,15516444,698569020,-1735894792,681787516,1351371922,711000111,-1058486128,-1992983303,-1608252664,-1375646593,168625984,75579675,-1303805952,1828435576,949003264,2112939431,1914707923,317781463,2054787055,1131443014,-1238263350,344128994,-1096526612,-1197047563,-1213489187,819039701,661507241,-1735147403,252562489,1234417908,1014111404,
771347872,-1243072233,-424908916,-709936170,-1845640895,-180612479,-526044943,962790137,366209145,1819181969,277499339,2081438611,-1828975485,1996562307,1944582399,-1279556883,865470523,1799980305,293648519,849249453,984483257,833518850,-1409426129,-454942763,-887713767,1800095517,1975855210,-368151371,-185685543,-338139075,-83957269,-106521135,
-732636535,2087894207,-228397941,934565056,1681531835,1136782472,1014464394,1003028352,-1961561720,-1838704430,1180825475,-1676404121,1180734338,-1677575829,-738131068,480589889,362361610,-1871013698,333489923,504600767,304149286,1410502799,132740034,311171459,-1107543972,1260640702,361112152,975112236,934224236,-224122852,-426956224,1765810447,
978567215,-139868823,1917962462,255268648,1811929599,-218508257,-1284334293,-139240212,1792101934,-120718194,2046254334,574610366,2080108799,-480453449,-1209473226,-172548358,1089949556,-1801038174,-506608904,-1563660464,569689300,-1890663395,538294756,-1448637828,145277352,-140083150,-2009283190,2143394515,1165358025,1030627311,-920276543,757761023,
-519725769,-1215835156,806815839,731895575,-264795629,1675399315,-791605669,-1281528832,-2144697645,-1211588071,-747686069,-1558775442,-696437173,1662310662,352840410,1846919763,1590877405,888452277,-169198111,1008628658,-1243959871,821976507,-1261237227,2029817777,-1661812545,2046773169,1924582635,668686269,1929284911,1703659517,1641208895,731481741,
1802734886,-1884039697,1945374230,-948709604,-88646026,1139635729,-897267207,-336818607,1248678216,74319930,-881203894,-861660293,1811930315,-963355787,425718769,-1106375861,-1277408423,1892861116,-420285077,-23691691,702897787,-1978335875,819317457,659202443,1888242268,1632428211,-706450564,-169923884,-168519043,1327260661,-2137695528,558408450,
-901003789,-2050898591,-633682502,-1065345806,-1436398301,-192801806,600689889,-2088615543,2057241851,1856843328,-17117741,-203571503,-1429450759,-259190832,-890714872,1737328266,-125837763,266199800,-359674411,-1746042925,-1969994626,189383168,1145616130,-1230100338,-982183401,-1660810646,1104532385,-1353477265,1634824919,257595886,1442526183,-1794360598,
2103107227,-199787329,-25446985,-173408538,-1099188809,-608567322,930195629,-1661457231,815110357,-325352463,1958868215,-1747094103,937544183,-1748159520,1381293467,-683560827,-1684423254,-164454585,47045327,386859985,13753332,319651841,1249734942,-706283473,882281161,2007755715,1823808584,654723905,-394327015,574906413,-6883108,-218997699,
-140862001,56578475,664373468,783966752,1838891588,-503518200,2127165905,1925476870,-79805557,1366817934,-335868806,-281600187,1778371578,-1478179784,1691007939,-1617970458,-732145666,491977006,-328479110,-824754351,1786312478,-1035731859,1986541555,773714890,335819540,203290946,-984582540,475921366,-1001360560,-2031195966,-595052972,68973382,
1908618086,869204101,-1828892052,864977698,400424553,-750507714,-672106944,-283646991,1760368900,-1511266305,496304756,688801376,206720044,-1594866648,-1704180724,-575631472,1760496220,-995596332,-2004464580,143188504,-1399439311,586704520,1117801564,-738610540,599730494,1117799252,2063026748,126372177,132602729,667446028,737377125,-1744951114,
247490380,1082735783,-1807695072,-1927935103,617660709,339871940,1841836915,240922822,614657041,1622419073,-1935327438,537439750,-1928514950,1244391722,559233143,689619813,-1257364899,1260154989,-1221886134,-252692306,-147177653,-234538498,1037142267,721970449,-450099630,-917503448,-1249598778,-2128741332,377496418,1344253106,169287098,1227727104,
455851146,2071626789,-1803306544,1989428940,1024908796,978643977,416534713,-1434006364,1296298986,-663610187,-1216303487,-58542219,-734602346,-1269763219,-1112304647,1492977652,885318259,2014509191,-1262121357,-292421817,1821474562,-502991377,-1265329423,570990927,-1262697895,676460718,1424278483,-262801161,365204307,-1332466202,-1765531689,541716803,
1994425989,-178471476,1386582648,-1479564448,1266374188,56956951,592541223,-1645014028,1347076229,881917593,-1909777082,674022946,257827902,1077691706,-1861162932,-45049868,2063535265,-258638087,-301785588,-2136441236,-1382611346,1253930366,1909590127,1004062388,2049672946,-85600555,-1014811834,-2102917082,-1256577458,19430714,326223303,-1756871183,
988794711,-1212057671,-285782857,-155064431,-1225114335,-1269721140,-1542276045,1007695844,833314196,-1557527663,-6927115,-653430888,-188551947,-88248850,-503742875,-1151687711,1677393195,1662228730,2071940287,-67252746,-336126857,-1275199498,1127315582,1668925239,-738347040,-645611553,181220852,-991051780,1926095218,-856880144,-73565868,-1049722380,
-269988914,-126317457,-1633153518,-326020688,1292210736,60821640,-1915227145,199902343,1487595409,-51069759,-286572718,-326877369,212152923,134527333,2111017973,151281789,1434514179,-2133542747,-1247297717,-825214617,2000402187,-478007185,475370403,570991881,-186083641,-132172627,365211615,-132776273,901913539,-1231556933,1145884299,1054454089,
1769284567,-2013443256,259590763,-1737674382,-1373033885,-851500046,1148021360,1166008577,-890304420,99533402,-897972761,1379753168,174344387,-604043328,1265585480,-1486222848,-80277380,1340982136,1226457148,-1955770824,174198902,528325200,1315666222,1303076410,-917429844,-2052078756,1801154748,57361664,1769173012,191647768,1233088574,527310358,
2027158717,-808893040,-1194996491,916309953,2027701341,1665910672,2029443231,-1219373571,-1144158410,400498129,170741270,1262604038,1094005248,50564387,2063520985,-673186319,13470416,753836125,-1959973102,-1696412830,193688595,44206371,1357693443,-414840421,-1500748236,1115404320,-864664962,-396392376,2031254265,-1695086356,1893973737,690095277,
