float W1[32][27]={,
-1.051558763720095158e-03,-1.486193481832742691e-02,-5.634577944874763489e-03,-6.458435207605361938e-02,-6.894123554229736328e-02,-3.502017632126808167e-02,2.735264971852302551e-02,9.423209726810455322e-02,8.919793367385864258e-02,3.381573408842086792e-02,4.381575807929039001e-02,2.256403118371963501e-02,-5.972953140735626221e-02,-9.541736543178558350e-02,-8.235058188438415527e-02,3.551096841692924500e-02,6.220967322587966919e-02,3.737859800457954407e-02,4.118134081363677979e-02,4.620467126369476318e-02,3.666650876402854919e-02,-6.770261377096176147e-02,-1.078022569417953491e-01,-1.053627580404281616e-01,4.952634871006011963e-02,4.342411831021308899e-02,4.949676990509033203e-02,
-2.612297656014561653e-03,2.379091270267963409e-02,-1.125899888575077057e-02,4.021101444959640503e-02,8.652206510305404663e-02,8.410043269395828247e-02,-4.991222918033599854e-02,-2.980521135032176971e-02,-1.334497984498739243e-02,-3.081191331148147583e-02,1.661128923296928406e-02,-9.493906982243061066e-03,-5.763425491750240326e-03,2.565793693065643311e-02,4.423265904188156128e-02,-7.282343506813049316e-02,-3.484728187322616577e-02,-3.383382409811019897e-02,-4.353926517069339752e-03,1.626309938728809357e-02,-4.849885590374469757e-03,5.217876605456694961e-06,1.470000203698873520e-02,3.292995691299438477e-02,-3.359597921371459961e-02,-1.519588287919759750e-02,-2.456528507173061371e-02,
2.064761146903038025e-02,2.386248903349041939e-03,-1.521727349609136581e-02,1.056109089404344559e-02,1.919019408524036407e-02,2.176236547529697418e-02,-3.550756489858031273e-03,-5.760496482253074646e-03,4.403541795909404755e-03,4.693923518061637878e-02,4.743248224258422852e-02,6.344423443078994751e-02,-2.918866230174899101e-03,2.965549938380718231e-02,1.039891596883535385e-02,-2.107421867549419403e-02,-6.053314730525016785e-02,-5.230897665023803711e-02,2.327597700059413910e-02,6.521321833133697510e-02,3.447741270065307617e-02,-1.421779859811067581e-02,1.677259337157011032e-03,2.832136116921901703e-03,-5.248870328068733215e-02,-7.234019786119461060e-02,-5.409289896488189697e-02,
-3.782046958804130554e-02,-4.808431491255760193e-02,2.319352328777313232e-02,-5.520967394113540649e-02,2.957245893776416779e-02,2.645215764641761780e-02,3.535045543685555458e-03,7.267168164253234863e-02,1.812134869396686554e-02,-5.868671089410781860e-02,-3.541868925094604492e-02,-5.151391495019197464e-03,-7.955344021320343018e-02,1.763286814093589783e-02,4.562241956591606140e-02,-2.250282280147075653e-02,7.983965426683425903e-02,9.352969005703926086e-03,-4.103963449597358704e-02,-7.982485927641391754e-03,2.162425778806209564e-02,-4.966362565755844116e-02,1.971008442342281342e-02,4.177581518888473511e-02,-3.253857046365737915e-02,3.694464266300201416e-02,1.524412445724010468e-02,
4.622769355773925781e-02,-2.165874466300010681e-02,1.755368430167436600e-03,6.017046049237251282e-02,-1.063179150223731995e-01,2.480458281934261322e-02,-1.066850125789642334e-02,-5.016977712512016296e-02,4.834585264325141907e-02,5.415548011660575867e-02,-2.891434915363788605e-02,-1.820123288780450821e-04,6.794337928295135498e-02,-9.435672312974929810e-02,2.036495879292488098e-02,2.943185856565833092e-03,-5.397587269544601440e-02,5.647074431180953979e-02,6.265125423669815063e-02,-2.912957221269607544e-02,-1.171863358467817307e-02,3.712029010057449341e-02,-9.902522712945938110e-02,2.232107147574424744e-02,4.438722506165504456e-03,-4.186747595667839050e-02,4.942094907164573669e-02,
2.988203987479209900e-02,1.944375573657453060e-03,-4.763828217983245850e-02,1.381564438343048096e-01,1.407161653041839600e-01,4.785860702395439148e-02,-2.125823125243186951e-02,-1.517913118004798889e-02,-3.748749196529388428e-02,-3.711190447211265564e-02,-8.136101998388767242e-03,-1.681316457688808441e-02,-1.965110003948211670e-02,-1.141358166933059692e-02,-9.843245148658752441e-03,-5.084606260061264038e-02,-5.264968425035476685e-02,-4.265227913856506348e-02,-7.322730123996734619e-02,-1.682962477207183838e-02,1.350768748670816422e-02,1.986479852348566055e-03,5.487889982759952545e-03,4.777115210890769958e-02,1.456706319004297256e-02,5.501859635114669800e-02,8.292036503553390503e-02,
-2.037453837692737579e-02,-8.898308128118515015e-02,1.434357371181249619e-03,3.912675194442272186e-03,-2.061730995774269104e-02,-4.924022778868675232e-02,-2.660367172211408615e-03,8.955118805170059204e-02,1.789285242557525635e-02,2.192297577857971191e-02,-3.695696219801902771e-02,3.692684322595596313e-02,3.883080184459686279e-02,-6.392738781869411469e-03,-5.000987090170383453e-03,-1.493051368743181229e-02,7.490539550781250000e-02,4.319721087813377380e-02,-2.301189489662647247e-02,-7.899516075849533081e-02,4.858573433011770248e-03,2.529471879824995995e-03,-2.013386972248554230e-02,-3.461676090955734253e-02,4.013336729258298874e-03,6.880586594343185425e-02,-5.556602962315082550e-03,
-1.986547745764255524e-02,6.920008361339569092e-02,-1.338581275194883347e-02,-5.873360484838485718e-02,-3.363553434610366821e-02,7.578746229410171509e-02,5.006972327828407288e-02,-1.021505519747734070e-01,-1.269325148314237595e-03,-1.867165043950080872e-02,5.943367257714271545e-02,-1.574952527880668640e-02,-8.344713598489761353e-02,-9.875234216451644897e-03,9.319584071636199951e-02,5.698726326227188110e-02,-8.750475198030471802e-02,2.035364322364330292e-02,7.510020863264799118e-03,7.345074415206909180e-02,-5.334037542343139648e-02,-5.312351882457733154e-02,-3.814792027696967125e-03,7.945556938648223877e-02,4.684831947088241577e-02,-7.946515828371047974e-02,-5.308453924953937531e-03,
-3.602979239076375961e-03,9.414173662662506104e-02,-1.151730399578809738e-02,-9.166318923234939575e-02,4.947790876030921936e-02,-7.651134580373764038e-02,-2.958556637167930603e-02,8.740797638893127441e-02,-4.051543399691581726e-02,-1.471404824405908585e-02,8.555052429437637329e-02,-8.408005349338054657e-03,-7.223088294267654419e-02,6.029559299349784851e-02,-7.157939672470092773e-02,-2.545206435024738312e-02,9.157796204090118408e-02,-3.502915799617767334e-02,-9.718074463307857513e-03,5.714360624551773071e-02,-1.651739585213363171e-03,-5.837382376194000244e-02,3.326859697699546814e-02,-7.289757579565048218e-02,-2.269618026912212372e-02,7.742488384246826172e-02,-2.993274293839931488e-02,
2.273477427661418915e-02,3.529191762208938599e-02,2.345258928835391998e-02,5.857879668474197388e-02,3.911889716982841492e-02,3.028126619756221771e-02,1.139385439455509186e-02,-4.074956756085157394e-03,-3.957005962729454041e-02,1.301279105246067047e-02,-3.451996669173240662e-02,-4.322417452931404114e-02,1.647595688700675964e-02,-1.941749639809131622e-02,-8.787700533866882324e-02,7.613061461597681046e-03,-1.727955788373947144e-02,-4.527758806943893433e-02,2.882391028106212616e-02,-3.653526306152343750e-02,-3.451661393046379089e-02,2.665623277425765991e-02,-3.104179352521896362e-02,-5.660114809870719910e-02,5.908262357115745544e-02,3.084236942231655121e-02,-3.529013693332672119e-02,
5.004199594259262085e-02,7.709258794784545898e-02,3.712132945656776428e-02,3.226019814610481262e-02,-1.996475085616111755e-02,-5.453664436936378479e-02,-3.405344858765602112e-02,-7.584656029939651489e-02,-3.335053473711013794e-02,3.511962667107582092e-02,5.166754126548767090e-02,3.706117719411849976e-02,1.295984839089214802e-03,-1.577458158135414124e-02,-3.697996586561203003e-02,-4.308783262968063354e-02,-6.541951745748519897e-02,-3.658820409327745438e-03,-4.988278821110725403e-02,9.374367073178291321e-03,4.819987807422876358e-03,-8.530109189450740814e-03,5.827043671160936356e-03,-8.588357828557491302e-03,-1.074943877756595612e-02,1.690129376947879791e-02,4.341858625411987305e-02,
-1.997128687798976898e-02,6.335442513227462769e-02,5.087302532047033310e-03,6.616156548261642456e-02,3.429158404469490051e-02,3.036207519471645355e-02,-7.719620130956172943e-03,9.404007345438003540e-03,5.509689822793006897e-02,-4.758042469620704651e-02,-5.360512062907218933e-03,-5.927980691194534302e-02,8.239543065428733826e-03,-9.120137989521026611e-02,-8.671402931213378906e-02,-4.885100200772285461e-02,-8.071773499250411987e-02,-1.031525153666734695e-02,1.057862117886543274e-02,4.433031007647514343e-02,-4.964760039001703262e-03,6.427972763776779175e-02,-3.713699430227279663e-02,-3.464078903198242188e-02,1.906452141702175140e-02,-2.064664848148822784e-02,6.156192347407341003e-02,
1.114990655332803726e-02,-4.585720598697662354e-02,7.319306582212448120e-02,2.323750033974647522e-02,-1.025311052799224854e-01,-2.406928874552249908e-02,6.486684083938598633e-02,-8.395529352128505707e-03,-5.907101556658744812e-03,-7.895839400589466095e-03,-5.252731218934059143e-02,4.253633692860603333e-02,5.440589785575866699e-02,-1.011129245162010193e-01,-1.135245431214570999e-02,7.892094552516937256e-02,1.823221147060394287e-02,3.437123261392116547e-03,5.888520739972591400e-03,-5.387927964329719543e-02,3.803394362330436707e-02,4.773350432515144348e-02,-9.310615807771682739e-02,-9.018260985612869263e-03,6.976249814033508301e-02,6.318291998468339443e-04,-1.024416089057922363e-02,
1.545055024325847626e-02,7.724741939455270767e-03,-1.415833365172147751e-02,-3.079841472208499908e-02,-3.452305868268013000e-02,-2.694918960332870483e-02,6.390292942523956299e-02,6.490088254213333130e-02,3.971815481781959534e-02,5.046668276190757751e-02,3.851161524653434753e-02,2.395793609321117401e-02,-4.416064172983169556e-02,-6.495169550180435181e-02,-1.092260256409645081e-01,4.849822819232940674e-02,5.192712880671024323e-03,4.120337776839733124e-03,6.803838070482015610e-03,5.001809820532798767e-02,5.607400834560394287e-02,-1.116418540477752686e-01,-1.182678863406181335e-01,-7.355759292840957642e-02,-1.350767444819211960e-02,-1.708627864718437195e-02,3.046555258333683014e-02,
2.600646950304508209e-02,2.820994518697261810e-02,-4.922650754451751709e-02,6.532500032335519791e-03,2.916605956852436066e-02,-4.351497069001197815e-02,-2.959108911454677582e-02,-5.823692306876182556e-02,9.769015759229660034e-02,1.385379768908023834e-02,3.450243547558784485e-02,-5.796906724572181702e-02,9.396236389875411987e-03,3.913537040352821350e-02,-3.918103128671646118e-02,-3.841654583811759949e-02,-9.166707098484039307e-02,1.063852384686470032e-01,1.580089330673217773e-02,3.314344212412834167e-02,-6.188240647315979004e-02,2.835786342620849609e-02,3.333183005452156067e-02,-3.431276604533195496e-02,-2.289483882486820221e-02,-4.499006271362304688e-02,9.241941571235656738e-02,
-5.817601084709167480e-02,-3.026770055294036865e-02,8.901045471429824829e-02,-3.879421576857566833e-02,-1.086362674832344055e-01,7.624871283769607544e-02,7.986961305141448975e-02,-4.489079117774963379e-02,1.566706225275993347e-03,-2.474743686616420746e-02,-4.678025469183921814e-02,8.193114399909973145e-02,3.278518794104456902e-03,-1.063468903303146362e-01,7.703600078821182251e-02,7.931070029735565186e-02,-3.906783089041709900e-02,7.484878413379192352e-03,-1.722644828259944916e-02,-2.986938506364822388e-02,7.694810628890991211e-02,-1.934004761278629303e-02,-8.864884078502655029e-02,6.726004183292388916e-02,6.201522052288055420e-02,-3.853474184870719910e-02,-1.616433449089527130e-02,
4.437022283673286438e-02,-4.436633735895156860e-02,1.079587545245885849e-02,-1.784452050924301147e-02,-5.353165045380592346e-02,7.454486191272735596e-02,-5.155254527926445007e-02,1.955735497176647186e-02,6.128558516502380371e-02,2.543328702449798584e-02,-5.266747251152992249e-02,2.184457331895828247e-02,-2.644380927085876465e-02,-6.843587756156921387e-02,6.873602420091629028e-02,-8.351599425077438354e-02,4.483935888856649399e-03,6.389530003070831299e-02,4.910680931061506271e-03,-6.065077334642410278e-02,3.697123005986213684e-02,-5.247646570205688477e-02,-5.244219303131103516e-02,9.452587366104125977e-02,-8.818528801202774048e-02,-2.206579782068729401e-02,9.948025643825531006e-02,
-6.712088733911514282e-02,-9.131710976362228394e-02,-3.188325557857751846e-03,-2.577807009220123291e-02,3.215189278125762939e-02,2.273190021514892578e-02,6.317565590143203735e-02,6.315771490335464478e-02,-1.867374964058399200e-02,-2.108103595674037933e-02,-5.918070673942565918e-02,2.449196204543113708e-02,5.667956545948982239e-03,4.760429635643959045e-02,2.548037841916084290e-02,5.330081284046173096e-02,3.541897982358932495e-02,-3.311517834663391113e-02,-3.271341696381568909e-02,-6.671763956546783447e-02,-4.972424823790788651e-03,-2.861378155648708344e-02,2.966169267892837524e-02,3.085440723225474358e-03,5.686438456177711487e-02,3.113994933664798737e-02,2.057510428130626678e-03,
6.917434930801391602e-02,4.851830750703811646e-02,8.563805371522903442e-03,7.845850288867950439e-02,-2.662425674498081207e-02,-4.759711399674415588e-02,-2.128241769969463348e-02,-8.248756080865859985e-02,-1.953044906258583069e-02,6.607510149478912354e-02,1.705752499401569366e-02,-2.864165417850017548e-02,9.041695296764373779e-02,-3.685782104730606079e-02,-4.900686070322990417e-02,2.635674783959984779e-03,-9.433898329734802246e-02,-2.248328737914562225e-02,4.451313242316246033e-02,3.504097461700439453e-02,-9.319443255662918091e-03,7.829154282808303833e-02,-2.115469239652156830e-02,-2.371024526655673981e-02,3.176193218678236008e-03,-8.658339083194732666e-02,-1.362646650522947311e-02,
9.269709140062332153e-02,-7.542993873357772827e-02,-4.867653921246528625e-02,-6.820616126060485840e-02,-8.939261734485626221e-02,-5.641407519578933716e-02,-2.804272435605525970e-02,3.237984701991081238e-02,-2.884058468043804169e-02,8.210763335227966309e-02,-4.976612981408834457e-03,7.529021706432104111e-03,-9.010040201246738434e-03,-1.543992757797241211e-02,5.558741465210914612e-02,3.454674733802676201e-03,6.689284741878509521e-02,2.438454888761043549e-02,-3.194314241409301758e-02,-4.209564998745918274e-02,-5.216130986809730530e-02,-5.015662685036659241e-02,1.278718933463096619e-02,5.072923004627227783e-02,-2.110542170703411102e-02,6.284710019826889038e-02,3.223027288913726807e-02,
-8.723484352231025696e-03,5.504478514194488525e-02,-1.339468453079462051e-02,3.926077485084533691e-02,5.612916126847267151e-02,-3.183533623814582825e-02,4.658953845500946045e-02,-9.102246724069118500e-03,-2.701086364686489105e-02,-1.122836489230394363e-02,1.442908123135566711e-02,-6.120777130126953125e-02,1.577202416956424713e-02,-7.586070802062749863e-03,-1.009919568896293640e-01,-4.804184936801902950e-05,-2.546174451708793640e-02,-4.357907548546791077e-02,2.114252932369709015e-02,8.068858087062835693e-02,-2.459253650158643723e-03,7.063814252614974976e-02,6.224296614527702332e-02,-2.136062644422054291e-02,3.751793503761291504e-02,1.442441996186971664e-02,-3.241029009222984314e-02,
3.513596206903457642e-02,-4.401496797800064087e-02,6.464640609920024872e-03,6.442900747060775757e-02,-2.651201747357845306e-02,-5.700996890664100647e-02,-1.869996450841426849e-02,1.499759964644908905e-02,-3.163039684295654297e-02,5.600009858608245850e-02,-5.285440757870674133e-02,-1.972563378512859344e-02,1.001902148127555847e-01,-1.276772096753120422e-02,-5.639204755425453186e-02,2.531231846660375595e-03,3.347830101847648621e-02,3.428650787100195885e-03,3.179724141955375671e-02,-5.357398092746734619e-02,-3.038520179688930511e-02,9.573646634817123413e-02,-1.525100599974393845e-02,-6.847267597913742065e-02,1.802727021276950836e-02,2.694125287234783173e-02,-4.195327311754226685e-02,
-1.825188845396041870e-02,-4.446250200271606445e-02,4.382175579667091370e-02,3.486960008740425110e-02,-2.727525122463703156e-02,-5.672226473689079285e-02,4.903561621904373169e-02,1.740067452192306519e-02,-1.136699095368385315e-01,-1.061534509062767029e-03,-3.876033052802085876e-02,7.059568911790847778e-02,5.758672207593917847e-02,-6.933112628757953644e-03,-5.729677528142929077e-02,6.453903764486312866e-02,2.982810698449611664e-02,-6.244993582367897034e-02,-4.878774285316467285e-03,-3.288416936993598938e-02,4.464405402541160583e-02,6.831776350736618042e-02,-6.380915176123380661e-03,-7.135385274887084961e-02,8.237025141716003418e-02,3.838149085640907288e-02,-9.937480092048645020e-02,
-5.781327839940786362e-03,-2.625157311558723450e-02,-2.780667506158351898e-03,-4.696777462959289551e-02,-7.095242291688919067e-02,-4.627414792776107788e-02,-4.490559548139572144e-02,-2.676667831838130951e-02,-1.755851879715919495e-02,1.030644495040178299e-02,1.653508283197879791e-02,-6.665135174989700317e-02,2.175698801875114441e-02,5.712839961051940918e-02,-1.225389423780143261e-03,1.834974810481071472e-02,4.388817772269248962e-02,-2.234654501080513000e-02,-1.511349109932780266e-03,6.776766479015350342e-02,-5.212195590138435364e-02,4.511383175849914551e-02,9.326211363077163696e-02,3.551888838410377502e-02,3.748245537281036377e-03,7.161680608987808228e-02,-3.116103634238243103e-02,
9.049322456121444702e-02,2.469520457088947296e-02,-4.605237022042274475e-02,-1.954811438918113708e-02,-9.109931066632270813e-03,3.868886502459645271e-03,-5.804134532809257507e-02,-2.951912395656108856e-02,9.505336731672286987e-02,7.059664279222488403e-02,5.274406448006629944e-02,-5.675252154469490051e-02,-3.230674192309379578e-02,-2.946858853101730347e-02,-2.657227218151092529e-02,-7.039491832256317139e-02,-5.429331213235855103e-02,7.774656265974044800e-02,7.601015269756317139e-02,5.423124879598617554e-02,-5.627812817692756653e-02,-4.561582580208778381e-02,-1.219469471834599972e-03,-8.803002536296844482e-03,-9.131211042404174805e-02,-5.700907483696937561e-02,4.505545273423194885e-02,
3.350546956062316895e-02,2.303193882107734680e-02,2.695587463676929474e-02,-5.442198016680777073e-04,-1.684713363647460938e-02,-1.490646414458751678e-02,-3.828131034970283508e-02,-7.532169669866561890e-02,-6.299281120300292969e-02,-1.122462656348943710e-02,2.530002966523170471e-03,-2.122740959748625755e-03,1.076405681669712067e-02,1.665336266160011292e-02,2.157002128660678864e-02,-3.561731427907943726e-02,-4.569257795810699463e-02,-2.868659235537052155e-02,-1.539309415966272354e-02,4.124574188608676195e-04,-1.525128167122602463e-02,2.506469935178756714e-02,6.593656539916992188e-02,6.401019543409347534e-02,2.391774952411651611e-02,1.131093967705965042e-02,2.194311469793319702e-02,
1.323928870260715485e-02,3.600022196769714355e-02,9.086922556161880493e-02,-3.165455535054206848e-02,-3.107359446585178375e-02,8.232072740793228149e-02,-4.418797791004180908e-02,-8.149430900812149048e-02,5.228492664173245430e-04,-3.141724690794944763e-02,3.240414336323738098e-02,9.326414763927459717e-02,-6.956675648689270020e-02,-6.390326470136642456e-02,8.847292512655258179e-02,-6.307293474674224854e-02,-7.437015324831008911e-02,1.887612976133823395e-02,-8.080627769231796265e-03,3.205281123518943787e-02,7.520902901887893677e-02,-4.761466011404991150e-02,-7.245320826768875122e-03,6.208132579922676086e-02,-2.942230552434921265e-02,-6.094370037317276001e-02,5.576310679316520691e-03,
-2.029038779437541962e-02,4.257360845804214478e-02,1.514311693608760834e-02,-5.226325988769531250e-02,5.754692852497100830e-02,2.314073592424392700e-02,-4.812130704522132874e-02,5.139311775565147400e-02,3.529458120465278625e-02,-8.451832085847854614e-02,5.459059961140155792e-03,1.047316845506429672e-02,-1.019298657774925232e-01,1.934763230383396149e-02,1.169219985604286194e-02,-1.031922027468681335e-01,2.963293157517910004e-02,2.490525692701339722e-02,-3.897265344858169556e-02,5.336377397179603577e-02,4.853012040257453918e-02,-5.163118243217468262e-02,6.707798689603805542e-02,3.425821289420127869e-02,-5.077983438968658447e-02,7.707355916500091553e-02,9.782983921468257904e-03,
-1.733370684087276459e-02,-2.179632522165775299e-02,-4.333403892815113068e-03,2.037348598241806030e-02,-7.408767938613891602e-03,-3.012433461844921112e-02,5.758992210030555725e-02,5.793386325240135193e-02,2.902589738368988037e-02,-1.913232170045375824e-02,-9.884335100650787354e-02,-8.569227904081344604e-02,-3.711105510592460632e-02,-5.271568149328231812e-02,-8.977872878313064575e-02,1.745022088289260864e-02,-1.690314337611198425e-02,-5.180902779102325439e-02,3.173253685235977173e-02,3.407626226544380188e-02,1.549227349460124969e-02,6.366392225027084351e-02,4.710833728313446045e-02,-7.975413464009761810e-03,1.398118492215871811e-02,5.365141853690147400e-02,2.222795225679874420e-02,
6.800572574138641357e-02,-7.236643135547637939e-02,9.139887057244777679e-03,-4.132539406418800354e-02,-9.421638399362564087e-02,5.465527251362800598e-02,-1.652691513299942017e-02,4.277995228767395020e-02,2.377041243016719818e-02,7.398528605699539185e-02,-5.955900624394416809e-02,1.259421347640454769e-03,-4.366737604141235352e-02,-1.126630529761314392e-01,5.584983900189399719e-02,1.009030640125274658e-02,6.513942033052444458e-02,5.399215593934059143e-02,3.701989725232124329e-02,-6.431543827056884766e-02,4.058300051838159561e-03,-6.360700726509094238e-02,-8.817321062088012695e-02,6.019380688667297363e-02,-3.571386635303497314e-02,3.807423263788223267e-02,8.282119780778884888e-02,
-8.926224708557128906e-02,-5.899136886000633240e-02,-1.949973404407501221e-02,-4.899700358510017395e-02,1.453255885280668736e-03,4.856397211551666260e-02,1.781651284545660019e-03,4.392964020371437073e-02,7.561981678009033203e-02,1.279740128666162491e-02,1.912746019661426544e-02,1.176855177618563175e-03,3.769636526703834534e-02,4.766325466334819794e-03,5.926701240241527557e-03,5.264607258141040802e-03,-1.174228172749280930e-02,-4.131592810153961182e-02,5.231637507677078247e-02,4.082267358899116516e-02,-9.756914550962392241e-06,4.688608646392822266e-02,3.144409880042076111e-02,-2.236779965460300446e-02,-4.655476193875074387e-03,-3.164139389991760254e-02,-7.933361083269119263e-02,
5.254508182406425476e-02,7.973834872245788574e-02,1.498462259769439697e-02,-5.551299080252647400e-02,-9.524828195571899414e-02,-3.733310103416442871e-02,5.505030509084463120e-03,-9.975821012631058693e-04,3.889793530106544495e-02,5.468412488698959351e-02,7.666720449924468994e-02,2.666308917105197906e-02,-7.458608597517013550e-02,-9.068945795297622681e-02,-8.099942654371261597e-02,-1.489129476249217987e-02,-1.630724221467971802e-02,5.095875635743141174e-02,3.317195549607276917e-02,6.905905902385711670e-02,-6.560359615832567215e-03,-2.186502888798713684e-02,-6.881519407033920288e-02,-3.450400382280349731e-02,2.663804776966571808e-02,3.746015951037406921e-02,3.524860367178916931e-02,
};,
