float W1[32][27]={,
-9.521681070327758789e-02,-1.226531248539686203e-02,8.231146633625030518e-02,-2.539416402578353882e-02,3.907609265297651291e-03,-3.376710461452603340e-03,9.327048063278198242e-02,-2.944971434772014618e-03,-1.010731309652328491e-01,-6.500902026891708374e-02,1.612510159611701965e-02,1.082371324300765991e-01,2.282594516873359680e-02,4.807409364730119705e-03,1.170870754867792130e-02,8.122610300779342651e-02,-3.159439191222190857e-03,-8.345530182123184204e-02,-1.028646081686019897e-01,-5.272315349429845810e-03,7.263808697462081909e-02,-1.614759676158428192e-02,-1.400788221508264542e-02,-5.864361766725778580e-03,1.102015525102615356e-01,-3.818747354671359062e-03,-8.702008426189422607e-02,
9.998436085879802704e-03,-6.261406093835830688e-02,9.247041493654251099e-02,3.937417641282081604e-02,-1.386900544166564941e-01,5.775902792811393738e-02,4.074344038963317871e-02,-5.264464020729064941e-02,-5.043330136686563492e-03,-6.416001706384122372e-04,-6.192656606435775757e-02,1.180260926485061646e-01,2.450749650597572327e-02,-1.401714533567428589e-01,5.461515113711357117e-02,4.788726568222045898e-02,-6.313325464725494385e-02,2.679575793445110321e-02,-7.845801301300525665e-03,-5.591126531362533569e-02,1.090756133198738098e-01,3.508563339710235596e-02,-1.220129951834678650e-01,5.088432878255844116e-02,5.746595561504364014e-02,-4.357294365763664246e-02,-3.054178785532712936e-03,
6.334775686264038086e-02,-4.731698706746101379e-02,-1.337328460067510605e-02,-6.344970315694808960e-02,-1.063316538929939270e-01,6.784571707248687744e-02,-1.149688847362995148e-02,7.768196612596511841e-02,4.408061131834983826e-02,1.024359986186027527e-01,-5.016359314322471619e-02,-1.716737821698188782e-02,-4.834643006324768066e-02,-1.266824156045913696e-01,5.302694812417030334e-02,-1.238026563078165054e-02,3.901960700750350952e-02,3.650047630071640015e-02,7.742787152528762817e-02,-5.151319131255149841e-02,2.020193263888359070e-03,-3.532618656754493713e-02,-1.095501258969306946e-01,4.701794683933258057e-02,-1.540861092507839203e-02,6.039400398731231689e-02,4.416808113455772400e-02,
2.244526520371437073e-02,3.011714667081832886e-02,7.088789343833923340e-02,4.547245427966117859e-02,2.393249049782752991e-02,5.176008213311433792e-03,2.523085474967956543e-02,4.302105680108070374e-02,-3.934825211763381958e-02,-3.750303387641906738e-02,-7.731839269399642944e-02,-6.992284674197435379e-03,2.096664905548095703e-02,-5.184344202280044556e-02,-1.038264259696006775e-01,2.185735665261745453e-02,5.437970976345241070e-04,-1.078890562057495117e-01,-7.103945594280958176e-03,-3.570229932665824890e-02,3.284666454419493675e-03,6.097597256302833557e-02,-7.104306481778621674e-03,-7.007717341184616089e-02,7.165413349866867065e-02,4.771051183342933655e-02,-6.605117022991180420e-02,
1.369183212518692017e-01,-2.395561151206493378e-02,-6.678722798824310303e-02,-3.745957743376493454e-03,-2.700147219002246857e-02,4.653084278106689453e-02,-9.320971369743347168e-02,4.909699782729148865e-02,1.791957207024097443e-02,8.038894087076187134e-02,-5.736094340682029724e-02,-6.756752729415893555e-02,-3.454395011067390442e-02,-7.761821895837783813e-02,6.408419460058212280e-02,-1.020747348666191101e-01,5.370257422327995300e-02,4.397616535425186157e-02,9.343209117650985718e-02,-2.692751958966255188e-02,-6.928062438964843750e-02,-6.012095138430595398e-03,-2.740038558840751648e-02,6.491035968065261841e-02,-7.933963090181350708e-02,7.078824937343597412e-02,3.648936375975608826e-02,
5.933075025677680969e-02,7.514907419681549072e-02,2.592511847615242004e-02,5.664265528321266174e-02,6.733662635087966919e-02,4.954954609274864197e-02,1.556238252669572830e-02,2.197820879518985748e-02,3.008923958986997604e-03,-1.114362701773643494e-01,-5.166757106781005859e-02,-5.750342085957527161e-02,-1.046426668763160706e-01,-6.991548091173171997e-02,-3.137162327766418457e-02,-2.365121431648731232e-02,-7.424563914537429810e-02,-3.024714440107345581e-02,1.259873528033494949e-02,3.740683197975158691e-02,1.999553479254245758e-02,-2.309503965079784393e-02,-7.411057595163583755e-03,5.546059831976890564e-02,4.491987451910972595e-02,-4.891715012490749359e-03,2.821626700460910797e-02,
-5.361853539943695068e-02,4.698018357157707214e-02,6.805537641048431396e-02,4.529779031872749329e-02,9.285097569227218628e-02,1.271214336156845093e-01,-6.409587711095809937e-02,1.033576671034097672e-02,1.559838093817234039e-02,-7.863715291023254395e-02,-3.330099582672119141e-02,-1.012470945715904236e-02,-8.111717179417610168e-03,2.511931210756301880e-02,6.798460148274898529e-03,-8.165197819471359253e-02,1.716451370157301426e-03,-1.416819356381893158e-02,-4.410535469651222229e-02,-1.194383390247821808e-02,-2.889264188706874847e-02,2.775072678923606873e-02,1.719201542437076569e-02,7.569097797386348248e-04,-1.001793053001165390e-02,3.121091797947883606e-02,-1.968858391046524048e-02,
-4.864059761166572571e-02,-7.129123061895370483e-02,-3.672245889902114868e-02,9.887961298227310181e-02,1.482708901166915894e-01,9.402716159820556641e-02,-2.706299535930156708e-02,-3.734504431486129761e-02,-5.081657320261001587e-02,-3.323053196072578430e-02,-9.534692764282226562e-02,-3.599248826503753662e-02,9.742390364408493042e-02,1.307863295078277588e-01,9.324806928634643555e-02,-7.353466749191284180e-02,-6.273292005062103271e-02,-7.734819501638412476e-02,-3.447642549872398376e-02,-8.157765120267868042e-02,-4.203340783715248108e-02,8.187018334865570068e-02,7.093351334333419800e-02,5.957059189677238464e-02,-5.101474747061729431e-02,-2.703293785452842712e-02,-3.063109144568443298e-02,
6.948656588792800903e-02,-7.022437453269958496e-02,1.398705411702394485e-02,6.592775136232376099e-02,-1.277026534080505371e-01,4.688964039087295532e-02,2.685658633708953857e-03,-5.524272844195365906e-02,4.351624473929405212e-02,6.853207945823669434e-02,-6.648705899715423584e-02,1.781024225056171417e-02,6.634255498647689819e-02,-1.266632080078125000e-01,7.720883935689926147e-02,-7.032841444015502930e-03,-5.405383557081222534e-02,6.423544138669967651e-02,2.020103111863136292e-02,-4.266612976789474487e-02,6.141569465398788452e-03,5.282692238688468933e-02,-1.210282295942306519e-01,6.269677728414535522e-02,-4.262907896190881729e-03,-3.219775110483169556e-02,4.625338688492774963e-02,
-6.556380540132522583e-02,-1.449803411960601807e-01,-1.069492846727371216e-01,3.930674865841865540e-02,2.498228289186954498e-02,1.130030117928981781e-02,4.645997658371925354e-02,1.272657662630081177e-01,7.370162010192871094e-02,-4.140187054872512817e-02,-1.137735694646835327e-01,-4.085657000541687012e-02,5.124398320913314819e-02,3.833002969622612000e-02,2.813225239515304565e-02,3.613517433404922485e-02,1.298776119947433472e-01,4.498631879687309265e-02,-6.105308979749679565e-02,-1.259723305702209473e-01,-6.414900720119476318e-02,3.601719439029693604e-02,1.113287359476089478e-02,2.574454434216022491e-02,2.428710833191871643e-02,1.081756949424743652e-01,2.879166044294834137e-02,
1.800293917767703533e-03,1.131652388721704483e-02,-1.450958754867315292e-02,5.388922244310379028e-02,7.196819875389337540e-03,-8.050316572189331055e-02,5.212353169918060303e-02,-7.515304605476558208e-04,-5.179561674594879150e-02,4.173455014824867249e-02,-1.827378058806061745e-03,-6.039214879274368286e-02,8.005911111831665039e-02,2.022100053727626801e-02,-1.136350110173225403e-01,7.798371464014053345e-02,5.934835877269506454e-03,-9.206286072731018066e-02,5.993419140577316284e-02,1.080410741269588470e-02,-5.484780669212341309e-02,1.148426309227943420e-01,4.417135939002037048e-02,-1.012124419212341309e-01,9.749243408441543579e-02,2.739479392766952515e-02,-7.382289320230484009e-02,
1.614333014003932476e-03,1.631022989749908447e-02,-6.290582567453384399e-02,7.559339981526136398e-03,6.796908378601074219e-02,1.122668851166963577e-02,-1.915635948535054922e-04,4.686637595295906067e-02,1.735063828527927399e-02,-7.430487312376499176e-03,3.681156784296035767e-02,-7.163914293050765991e-02,-2.354723773896694183e-02,6.934466958045959473e-02,-2.672592364251613617e-02,1.874141767621040344e-02,3.810847550630569458e-02,7.313850335776805878e-03,4.374838992953300476e-02,4.885310307145118713e-02,-6.023680791258811951e-02,4.617078229784965515e-02,9.150474518537521362e-02,-4.299124702811241150e-02,4.460077732801437378e-02,3.477813303470611572e-02,-4.263784363865852356e-02,
-4.613992571830749512e-02,-3.625537827610969543e-02,-5.403079092502593994e-03,-5.015842616558074951e-02,-5.544285476207733154e-02,-1.097914879210293293e-03,-3.861143486574292183e-03,1.522959209978580475e-02,7.877860218286514282e-02,-5.531670898199081421e-02,-4.407679196447134018e-03,3.684017062187194824e-02,-6.438517570495605469e-02,2.393727918388321996e-04,4.809511825442314148e-02,-7.925127446651458740e-02,-3.267041593790054321e-02,2.312502451241016388e-02,-3.736241534352302551e-02,5.149728432297706604e-02,8.174351602792739868e-02,-1.124302018433809280e-02,7.812686264514923096e-02,1.121772080659866333e-01,-6.703342497348785400e-02,1.266888622194528580e-02,5.312227457761764526e-02,
-2.577342092990875244e-02,-7.791634649038314819e-02,-8.517354726791381836e-02,2.220468781888484955e-02,1.503288978710770607e-03,-2.447091741487383842e-03,8.563000708818435669e-02,6.670273095369338989e-02,8.307009190320968628e-02,-2.967089228332042694e-02,-1.269461121410131454e-02,-1.980810053646564484e-02,-1.439557597041130066e-02,-2.920774370431900024e-02,-5.487611517310142517e-02,-1.570747792720794678e-02,-2.195926196873188019e-02,-2.841223776340484619e-02,7.562478631734848022e-02,1.446239948272705078e-01,1.606280207633972168e-01,8.895577862858772278e-03,4.069619625806808472e-02,6.203849241137504578e-02,-1.262204498052597046e-01,-7.251653820276260376e-02,-8.668831735849380493e-02,
2.069907449185848236e-02,5.787627026438713074e-02,4.977604746818542480e-02,4.117996245622634888e-02,5.207254737615585327e-02,1.709727384150028229e-02,-2.968831732869148254e-02,-7.119356840848922729e-02,-4.515797272324562073e-02,-2.844429109245538712e-03,4.880004003643989563e-02,3.619083389639854431e-02,2.803789824247360229e-02,3.983490169048309326e-02,-1.393207581713795662e-03,-4.045033454895019531e-02,-1.013128682971000671e-01,-8.294072002172470093e-02,2.001778967678546906e-02,3.740399330854415894e-02,3.567064926028251648e-02,4.590973630547523499e-02,4.014373198151588440e-02,2.955395728349685669e-02,-1.809345930814743042e-02,-5.269599333405494690e-02,-3.651056438684463501e-02,
-9.512144327163696289e-02,-1.726188957691192627e-01,-7.463023811578750610e-02,1.022513723000884056e-03,4.965982958674430847e-02,1.265645306557416916e-02,3.015725687146186829e-02,6.451239436864852905e-02,8.976937271654605865e-03,-4.143984988331794739e-02,-1.025641113519668579e-01,-1.015662401914596558e-02,4.637707769870758057e-02,5.774419754743576050e-02,3.383687138557434082e-02,1.032059825956821442e-02,6.597852706909179688e-02,-2.388898842036724091e-02,-6.295605003833770752e-02,-1.036831289529800415e-01,-3.149397671222686768e-02,2.720787562429904938e-02,3.481762856245040894e-02,4.073936119675636292e-02,2.591793797910213470e-02,3.361461684107780457e-02,9.553462266921997070e-03,
4.296591505408287048e-02,-5.371146649122238159e-02,2.696353942155838013e-02,-8.712549507617950439e-02,-4.243453498929738998e-03,6.087644025683403015e-02,-1.836854591965675354e-02,7.046890258789062500e-02,-5.668866261839866638e-02,1.644806377589702606e-02,-9.594480693340301514e-02,-9.042005054652690887e-03,-6.190467253327369690e-02,1.563937216997146606e-02,1.023725569248199463e-01,-4.249440040439367294e-03,9.591387212276458740e-02,-1.253878790885210037e-02,-1.127332448959350586e-02,-9.278039634227752686e-02,-8.992027491331100464e-03,-6.452196836471557617e-02,-3.457881277427077293e-03,8.441312611103057861e-02,-1.532594580203294754e-02,7.416956126689910889e-02,-1.624715700745582581e-02,
-1.404151041060686111e-02,7.189256697893142700e-02,1.435991283506155014e-02,2.857302688062191010e-02,5.848059058189392090e-02,-2.430513314902782440e-02,1.749719306826591492e-02,-3.335245698690414429e-02,-4.420967027544975281e-02,2.339391969144344330e-02,2.233627066016197205e-02,-6.223786994814872742e-02,6.150199100375175476e-02,-7.894137874245643616e-03,-1.018420383334159851e-01,3.695145621895790100e-02,-8.412741124629974365e-02,-5.574696511030197144e-02,2.130354568362236023e-02,2.302054688334465027e-02,-5.664654076099395752e-02,5.966876447200775146e-02,6.349079310894012451e-03,-6.199708580970764160e-02,5.734043195843696594e-02,-4.130196571350097656e-02,-9.762189351022243500e-03,
4.652040079236030579e-02,7.658851891756057739e-02,4.970382526516914368e-02,-1.011304464191198349e-02,-4.716056399047374725e-03,-1.728205755352973938e-02,-2.349203638732433319e-02,-2.809298038482666016e-02,-8.474429138004779816e-03,4.800491034984588623e-02,8.467987179756164551e-02,7.698337733745574951e-02,-2.316027879714965820e-02,-8.294922299683094025e-03,-3.133413568139076233e-02,-4.071862250566482544e-02,-7.772092521190643311e-02,-2.024088799953460693e-02,2.517896145582199097e-02,7.147476822137832642e-02,4.799653589725494385e-02,-2.096177451312541962e-02,-4.261042177677154541e-02,-3.391372039914131165e-02,-5.403448641300201416e-02,-1.095060259103775024e-01,-6.871128827333450317e-02,
2.942818216979503632e-02,3.384055802598595619e-03,-1.042769569903612137e-02,-6.612137705087661743e-02,8.239301387220621109e-04,3.898046910762786865e-02,-7.284647226333618164e-02,-8.424382656812667847e-03,2.447546273469924927e-02,2.713064197450876236e-03,-8.464406244456768036e-03,2.841615490615367889e-02,-6.711073219776153564e-02,9.587633423507213593e-03,7.673683017492294312e-02,-4.342146962881088257e-02,1.944060996174812317e-02,8.830227702856063843e-02,-6.156868115067481995e-02,-3.250980004668235779e-02,-8.559845737181603909e-04,-1.168565005064010620e-01,-1.235788874328136444e-02,8.136218041181564331e-02,-9.510854631662368774e-02,9.328252635896205902e-03,8.725661039352416992e-02,
-5.730714648962020874e-02,6.055989488959312439e-02,2.326321788132190704e-03,-1.054443717002868652e-01,3.420572355389595032e-02,-6.176280230283737183e-02,-4.128446429967880249e-02,8.117337524890899658e-02,-1.119914557784795761e-02,-1.996277831494808197e-02,1.236953586339950562e-01,-5.512270703911781311e-02,-5.575440451502799988e-02,8.553734421730041504e-02,-7.282233238220214844e-02,-1.479438785463571548e-02,1.374713033437728882e-01,-3.568156063556671143e-02,-2.461893483996391296e-03,1.059886142611503601e-01,-3.791449591517448425e-02,-3.843488544225692749e-02,9.201039373874664307e-02,-6.873852759599685669e-02,-7.780855894088745117e-02,8.540895581245422363e-02,-8.152239769697189331e-02,
4.259387776255607605e-02,9.869092702865600586e-02,-7.534843869507312775e-03,7.205460965633392334e-02,2.241011895239353180e-02,-7.376781851053237915e-02,-3.172822063788771629e-03,-5.822420865297317505e-02,-8.382453024387359619e-02,5.285010859370231628e-02,1.197980195283889771e-01,-4.617229476571083069e-02,9.027700126171112061e-02,4.601101949810981750e-02,-1.062082722783088684e-01,1.007032487541437149e-02,-4.950038343667984009e-02,-1.063928678631782532e-01,3.634802252054214478e-02,7.572833448648452759e-02,-1.565571129322052002e-02,5.098878592252731323e-02,3.063291311264038086e-02,-6.755761057138442993e-02,-3.690538927912712097e-03,-6.036346778273582458e-02,-8.284240961074829102e-02,
8.015043288469314575e-02,7.658998668193817139e-02,5.877440422773361206e-02,4.228201881051063538e-02,-1.433732546865940094e-02,-1.955907605588436127e-02,-1.053707003593444824e-01,-7.623539119958877563e-02,-3.519279137253761292e-02,3.481451049447059631e-02,5.547058209776878357e-02,1.185670774430036545e-02,-9.317820513388141990e-05,-1.412037108093500137e-02,-3.450450673699378967e-02,-5.215354263782501221e-02,-8.611140400171279907e-02,-2.994348108768463135e-02,3.348911704961210489e-04,1.420447602868080139e-02,-1.296620722860097885e-02,1.036985404789447784e-02,-9.677893482148647308e-03,-3.389069810509681702e-02,-1.926410594023764133e-03,8.856389671564102173e-03,4.891367629170417786e-02,
3.006345778703689575e-02,4.446794092655181885e-02,4.634045809507369995e-02,-1.146636903285980225e-02,-2.168034948408603668e-02,3.253986313939094543e-02,-2.880628593266010284e-02,-7.174479961395263672e-02,-6.759913172572851181e-03,-5.631135776638984680e-02,-4.809332080185413361e-03,5.392691865563392639e-02,-5.624980479478836060e-02,-3.946312144398689270e-02,5.137026309967041016e-02,-4.117274656891822815e-02,-4.449864104390144348e-02,2.582822181284427643e-02,-5.059808865189552307e-02,2.840710105374455452e-03,4.981242492794990540e-02,-3.970122337341308594e-02,-2.428875118494033813e-02,7.982113957405090332e-02,-3.560742130503058434e-03,-2.625746652483940125e-02,4.415229335427284241e-02,
-6.644786894321441650e-02,-5.114977806806564331e-02,5.406775511801242828e-03,-5.471540614962577820e-02,4.236767441034317017e-02,5.767597630620002747e-02,2.673900313675403595e-02,9.570948034524917603e-02,9.006967395544052124e-02,-4.760998487472534180e-02,-6.423818320035934448e-02,-2.228942327201366425e-02,-1.072515249252319336e-01,-4.619787260890007019e-02,-1.708747819066047668e-02,-6.461986899375915527e-02,7.654581218957901001e-03,-5.894386768341064453e-02,5.743037909269332886e-02,4.422148317098617554e-02,4.127682372927665710e-02,4.470995441079139709e-02,4.708598926663398743e-02,2.433807402849197388e-02,2.269995398819446564e-02,1.581055298447608948e-02,-4.529852792620658875e-02,
-3.722958639264106750e-02,-6.781426072120666504e-02,-9.581200778484344482e-02,6.544578075408935547e-02,1.616639085114002228e-02,-5.765911191701889038e-02,5.464740470051765442e-02,1.103025451302528381e-01,6.470318138599395752e-02,2.566062659025192261e-02,-2.707361616194248199e-02,-6.858450174331665039e-02,4.836162552237510681e-02,4.575305432081222534e-02,-6.640365719795227051e-02,3.022508509457111359e-02,7.157776504755020142e-02,-1.792271994054317474e-02,5.065880715847015381e-02,-7.051027379930019379e-03,-6.555787287652492523e-03,4.486186895519495010e-03,-1.209007925353944302e-03,-6.439962983131408691e-02,-1.253337599337100983e-02,2.251092903316020966e-02,-6.263127923011779785e-02,
-1.455519348382949829e-02,-9.702504426240921021e-02,-2.839605137705802917e-02,-6.839476525783538818e-02,-1.124357730150222778e-01,-8.120188117027282715e-02,3.641053661704063416e-02,7.666390156373381615e-04,3.018945828080177307e-02,2.243870112579315901e-04,-4.451481159776449203e-03,-1.713051833212375641e-02,-1.807033456861972809e-02,-2.906763926148414612e-02,-7.410342805087566376e-03,3.825515508651733398e-03,1.270201429724693298e-02,2.413875982165336609e-02,1.854379288852214813e-02,6.209071353077888489e-02,2.558299526572227478e-02,2.930381521582603455e-02,8.303260058164596558e-02,4.557525739073753357e-02,-4.890374839305877686e-03,1.861632568761706352e-03,-1.355312671512365341e-02,
-2.244459092617034912e-02,4.923204705119132996e-02,-5.110168829560279846e-02,-8.383595198392868042e-02,-1.075630858540534973e-01,-3.835140168666839600e-02,7.188645750284194946e-02,4.659339785575866699e-02,6.582045555114746094e-02,3.367889299988746643e-02,1.327814757823944092e-01,1.770667266100645065e-03,-3.362389281392097473e-02,-6.728642433881759644e-02,-6.358075421303510666e-03,3.905810415744781494e-02,2.725912444293498993e-02,5.755033344030380249e-03,3.261930309236049652e-03,7.337192445993423462e-02,2.129656821489334106e-02,-4.035182297229766846e-02,-1.013299301266670227e-01,-1.283425278961658478e-02,9.732176549732685089e-03,-6.164390593767166138e-03,-1.213467121124267578e-02,
3.169181523844599724e-03,6.343779712915420532e-02,3.338500857353210449e-02,-4.844293743371963501e-02,1.011778321117162704e-02,1.106054037809371948e-01,-5.036444216966629028e-02,-9.014978259801864624e-02,-1.441192626953125000e-02,-2.688794396817684174e-02,6.163613870739936829e-02,2.661930583417415619e-02,-7.122028619050979614e-02,-5.194509867578744888e-04,9.465057402849197388e-02,-1.633910089731216431e-02,-8.660114556550979614e-02,-5.950812716037034988e-03,-5.708879791200160980e-03,4.507006704807281494e-02,1.429829094558954239e-02,-1.597593352198600769e-02,-9.482919238507747650e-03,6.403843313455581665e-02,-2.804456511512398720e-03,-6.794507801532745361e-02,-1.134861819446086884e-02,
4.537832736968994141e-02,4.931732267141342163e-02,9.652417898178100586e-02,-3.274210542440414429e-02,-5.593208596110343933e-02,-1.067951438017189503e-03,-9.179972857236862183e-02,-8.287012577056884766e-02,-5.590931326150894165e-02,-2.957703173160552979e-02,-4.027393832802772522e-02,-7.111212611198425293e-02,7.656347472220659256e-03,1.526140887290239334e-02,-1.898269355297088623e-02,2.209172397851943970e-02,4.775213822722434998e-02,-7.926400285214185715e-04,-1.652935519814491272e-02,-8.547950536012649536e-03,-8.771167695522308350e-02,4.265907779335975647e-02,7.932863384485244751e-02,6.740472279489040375e-03,7.763939350843429565e-02,9.616161882877349854e-02,3.919177129864692688e-02,
3.635740652680397034e-02,4.612760618329048157e-02,5.581388995051383972e-02,1.072717271745204926e-02,5.047257058322429657e-03,6.206130608916282654e-02,-5.004560574889183044e-03,-7.684417814016342163e-02,-6.636099517345428467e-02,-1.225334592163562775e-03,1.059861388057470322e-02,3.070874512195587158e-02,-5.616309493780136108e-02,-2.927575260400772095e-02,2.461596950888633728e-02,-3.444221615791320801e-02,-9.095486998558044434e-02,-5.693782493472099304e-02,-2.164066210389137268e-02,2.819988876581192017e-02,4.497628286480903625e-02,-1.474069710820913315e-02,1.472161803394556046e-02,2.937825955450534821e-02,5.419147666543722153e-03,-7.676016073673963547e-03,-1.784128881990909576e-02,
7.363645825535058975e-03,-3.205266222357749939e-02,8.743988722562789917e-02,3.747755289077758789e-02,-1.364246159791946411e-01,1.372772175818681717e-02,7.725273072719573975e-02,-4.694685339927673340e-02,-8.015155792236328125e-03,-2.350585907697677612e-02,-6.899652630090713501e-02,1.004566475749015808e-01,2.437437884509563446e-02,-1.936116516590118408e-01,3.289233148097991943e-02,1.295391172170639038e-01,-3.135197237133979797e-02,2.321412786841392517e-02,1.965684257447719574e-02,-6.450260430574417114e-02,2.693342603743076324e-02,8.959627151489257812e-02,-1.494237780570983887e-01,3.880344098433852196e-03,1.624843627214431763e-01,-2.672095969319343567e-02,-5.264024436473846436e-02,
};,
