float W1[32][27]={,
-1.193934828042984009e-01,-1.712306961417198181e-02,2.864162996411323547e-02,-2.804942056536674500e-02,-6.552874576300382614e-03,-3.232795046642422676e-03,1.183769628405570984e-01,3.010423155501484871e-03,-4.218840971589088440e-02,-5.457456409931182861e-02,2.831112407147884369e-02,6.384176760911941528e-02,-1.038650516420602798e-02,1.280726399272680283e-03,7.308296859264373779e-03,9.115915000438690186e-02,-1.371571049094200134e-02,-4.973315820097923279e-02,-8.313356339931488037e-02,-8.804379467619583011e-05,7.214372511953115463e-03,-1.125681214034557343e-02,1.388021046295762062e-03,-2.357531106099486351e-03,7.851151376962661743e-02,-8.592174388468265533e-03,-1.921745575964450836e-02,
8.847242593765258789e-02,-7.796599715948104858e-02,1.607638597488403320e-02,-1.398310717195272446e-02,-1.232483983039855957e-01,8.457687497138977051e-02,-3.138095512986183167e-02,-4.524210002273321152e-03,2.500709332525730133e-02,8.269709348678588867e-02,-8.338636159896850586e-02,2.326249959878623486e-04,-2.627171808853745461e-03,-1.179755255579948425e-01,7.117381691932678223e-02,-1.153507921844720840e-02,3.807727620005607605e-02,6.034940108656883240e-02,5.605678260326385498e-02,-6.979450583457946777e-02,-2.219605259597301483e-03,-1.989595964550971985e-02,-1.106678619980812073e-01,7.742351293563842773e-02,-1.962898112833499908e-02,2.968409284949302673e-02,4.720677435398101807e-02,
5.313218012452125549e-02,2.000538632273674011e-02,-1.718135550618171692e-02,3.527927398681640625e-02,-2.258711680769920349e-02,-5.341320484876632690e-02,1.325439941138029099e-02,5.163327790796756744e-03,-3.089884296059608459e-02,-1.060104519128799438e-01,-1.672275923192501068e-02,2.269475720822811127e-02,-6.771967560052871704e-02,-6.002787034958600998e-03,2.508810535073280334e-02,-7.097721844911575317e-02,3.620922937989234924e-02,3.077279776334762573e-02,-8.713395148515701294e-02,3.773850575089454651e-02,6.053457781672477722e-02,-5.239033699035644531e-02,1.046875193715095520e-01,9.555739164352416992e-02,-8.491080999374389648e-02,7.741344720125198364e-02,4.878778755664825439e-02,
1.966789551079273224e-02,5.009360238909721375e-02,4.154613614082336426e-02,1.187984272837638855e-02,5.514992773532867432e-02,6.688035279512405396e-02,-2.373891323804855347e-02,-2.995497919619083405e-02,-4.009278491139411926e-02,1.130350958555936813e-02,4.069150984287261963e-02,2.320940047502517700e-02,-1.654385239817202091e-03,4.360738396644592285e-02,4.050172120332717896e-02,-6.987587362527847290e-02,-8.876860886812210083e-02,-6.234635785222053528e-02,4.966624081134796143e-02,5.243553221225738525e-02,3.169919177889823914e-02,2.066664211452007294e-02,1.187986135482788086e-02,3.012222982943058014e-02,-4.136800393462181091e-02,-8.754789829254150391e-02,-8.130323141813278198e-02,
5.727362260222434998e-02,7.374410331249237061e-02,2.051691524684429169e-02,4.111193120479583740e-02,1.122392248362302780e-02,-3.822492435574531555e-02,-9.340601041913032532e-03,-5.426565557718276978e-02,-5.764720961451530457e-03,2.828728966414928436e-02,1.331862807273864746e-02,-4.633243009448051453e-02,4.565053060650825500e-02,-5.064033344388008118e-02,-7.451163977384567261e-02,-2.778147812932729721e-03,-4.868395999073982239e-02,-2.879090234637260437e-02,4.311657696962356567e-02,3.566661104559898376e-02,-1.488951873034238815e-02,4.997026547789573669e-02,-2.632688730955123901e-02,-3.610348328948020935e-02,1.009197905659675598e-02,-3.452937304973602295e-02,1.932424493134021759e-03,
1.473547704517841339e-02,8.920044451951980591e-02,7.026977837085723877e-02,-6.111563369631767273e-02,-8.319753408432006836e-02,-5.036991089582443237e-02,1.463163364678621292e-02,-8.065828680992126465e-02,-5.645408481359481812e-02,2.105868794023990631e-02,6.855651736259460449e-02,3.713991120457649231e-02,-2.250526286661624908e-02,-3.399434313178062439e-02,-2.092513814568519592e-02,2.547975629568099976e-02,-4.525798931717872620e-02,-1.404948718845844269e-02,-2.734183799475431442e-03,3.689658641815185547e-02,3.843561979010701180e-03,-2.140711992979049683e-02,-1.566535793244838715e-02,-1.430383510887622833e-02,5.925166979432106018e-02,2.765669114887714386e-02,4.073574393987655640e-02,
-2.768464619293808937e-03,7.663466967642307281e-03,-2.899640612304210663e-02,9.619117528200149536e-02,9.829398989677429199e-02,5.581007525324821472e-02,-3.242255374789237976e-02,4.026219993829727173e-02,-7.103365845978260040e-03,7.381487637758255005e-03,-3.013768233358860016e-02,-8.909902721643447876e-02,-3.040207317098975182e-03,2.358440496027469635e-02,-4.287554696202278137e-02,-6.973874568939208984e-02,2.271154895424842834e-03,-4.751748964190483093e-02,2.974985167384147644e-02,-1.004845090210437775e-02,-7.418079674243927002e-02,4.128877073526382446e-02,6.867074221372604370e-02,-3.881144523620605469e-02,3.934951033443212509e-03,6.986409425735473633e-02,-2.034646272659301758e-02,
-3.688984084874391556e-03,8.735123090445995331e-03,-6.104065105319023132e-03,8.602235466241836548e-02,-1.031393855810165405e-01,-8.306316100060939789e-03,1.862374716438353062e-03,-9.159574657678604126e-02,7.344044744968414307e-02,3.590387850999832153e-02,1.520539261400699615e-02,-4.733677953481674194e-03,8.986894041299819946e-02,-8.205129951238632202e-02,-1.636624918319284916e-03,5.047607794404029846e-02,-1.087268069386482239e-01,7.814201712608337402e-02,5.709197372198104858e-03,1.704960316419601440e-02,-2.987102977931499481e-02,7.672875374555587769e-02,-1.005463451147079468e-01,3.249917877838015556e-03,2.284639514982700348e-02,-1.084621399641036987e-01,8.207765221595764160e-02,
3.276193747296929359e-03,-1.464430615305900574e-02,6.173420324921607971e-02,-1.369973737746477127e-02,-9.205706417560577393e-02,-4.995977506041526794e-02,6.929454207420349121e-02,-1.241713645868003368e-03,4.616501927375793457e-02,-2.123596332967281342e-02,5.298569332808256149e-03,1.024396121501922607e-01,-5.300584807991981506e-02,-1.420700699090957642e-01,-2.971918508410453796e-02,1.172064617276191711e-01,-9.548443369567394257e-03,6.513757258653640747e-02,1.549632195383310318e-02,1.216211356222629547e-02,8.705476671457290649e-02,-5.684594437479972839e-02,-1.276225447654724121e-01,-5.390011146664619446e-02,9.451474249362945557e-02,-4.693602025508880615e-02,4.452279210090637207e-02,
-5.776484310626983643e-02,-1.030486822128295898e-01,-9.919683635234832764e-02,4.059508815407752991e-02,5.665636062622070312e-02,5.783568695187568665e-02,-1.491993386298418045e-02,9.468674659729003906e-03,-9.061896242201328278e-03,-2.007710514590144157e-03,-3.925475105643272400e-02,-2.680528350174427032e-02,8.461732417345046997e-02,1.003336906433105469e-01,1.097670048475265503e-01,-7.122874376364052296e-04,1.079886034131050110e-02,-2.165897283703088760e-03,-3.395663946866989136e-02,-7.391195744276046753e-02,-8.516670763492584229e-02,2.349843643605709076e-02,3.668305277824401855e-02,4.741728678345680237e-02,-2.740885689854621887e-02,-5.663241725414991379e-03,-1.129596866667270660e-02,
-1.093585230410099030e-02,-4.315828904509544373e-02,-3.201451152563095093e-02,-5.163916200399398804e-02,2.377228066325187683e-02,4.709734022617340088e-02,5.634777247905731201e-02,1.085547581315040588e-01,6.816814094781875610e-02,-1.471168012358248234e-03,-8.182766288518905640e-02,-3.332229703664779663e-02,-7.784619927406311035e-02,-6.948918849229812622e-02,-2.702777646481990814e-02,1.224784646183252335e-02,5.170082300901412964e-02,8.650203235447406769e-03,1.661575585603713989e-02,-5.644690245389938354e-02,-1.718820445239543915e-02,-3.808934614062309265e-02,-2.840360626578330994e-02,-3.737168386578559875e-03,5.531932041049003601e-02,6.184246391057968140e-02,1.712466217577457428e-02,
7.739666849374771118e-02,6.640803813934326172e-02,-8.514012210071086884e-03,-2.378009073436260223e-02,-4.508983343839645386e-02,-5.121278762817382812e-02,-3.181615844368934631e-02,-2.088828012347221375e-02,5.036442354321479797e-02,5.848346650600433350e-02,8.060821145772933960e-02,1.854352280497550964e-02,-2.503947168588638306e-02,-3.682506456971168518e-02,-5.056045949459075928e-02,-4.181024432182312012e-02,-4.220382496714591980e-02,5.870354175567626953e-02,2.754494920372962952e-02,5.864746123552322388e-02,1.287190243601799011e-02,-3.162370249629020691e-02,-3.624106943607330322e-02,-4.432195425033569336e-02,-5.275840684771537781e-02,-7.575345039367675781e-02,1.223846059292554855e-02,
1.848308183252811432e-02,1.924708485603332520e-02,2.230540663003921509e-02,5.574900656938552856e-02,2.917350083589553833e-02,2.512940205633640289e-02,1.960215158760547638e-02,6.522238254547119141e-02,-3.158350707963109016e-03,-4.227913171052932739e-02,-4.773316159844398499e-02,-3.183467313647270203e-02,-4.606186971068382263e-02,-8.444002270698547363e-02,-1.446260139346122742e-02,-5.200891569256782532e-02,-1.922318153083324432e-02,-6.962448358535766602e-02,1.570117287337779999e-02,-1.775088720023632050e-03,3.671810775995254517e-02,3.886497346684336662e-03,-6.192650273442268372e-02,4.495526850223541260e-02,1.701754517853260040e-02,5.423279106616973877e-02,-2.543208654969930649e-03,
4.118940327316522598e-03,-3.689650818705558777e-02,3.711031749844551086e-02,-5.677311867475509644e-02,-1.592545583844184875e-02,7.613715529441833496e-02,7.386711239814758301e-02,4.593424126505851746e-02,-1.120405122637748718e-01,-6.823895499110221863e-03,-2.935548126697540283e-02,4.219783097505569458e-02,-6.498692184686660767e-02,-2.050132304430007935e-02,7.017149776220321655e-02,5.424224957823753357e-02,4.750506207346916199e-02,-1.284580826759338379e-01,-1.840831339359283447e-02,-1.420365087687969208e-02,2.629766799509525299e-02,-5.495704710483551025e-02,1.953223545569926500e-04,7.888641953468322754e-02,7.644367963075637817e-02,2.952741645276546478e-02,-8.194701373577117920e-02,
4.804696142673492432e-02,7.992228120565414429e-02,4.137523472309112549e-02,7.463607192039489746e-02,4.238238185644149780e-02,-3.633197396993637085e-02,3.524124622344970703e-03,-5.772876366972923279e-02,-5.087942630052566528e-02,1.215367298573255539e-02,6.511382758617401123e-02,-4.091366380453109741e-02,6.574278324842453003e-02,1.956903189420700073e-02,-7.925587892532348633e-02,-7.675564382225275040e-03,-4.687608033418655396e-02,-8.716272562742233276e-02,1.630362309515476227e-02,7.197228819131851196e-02,-1.940615358762443066e-03,4.816991090774536133e-02,2.816823497414588928e-02,-4.463956877589225769e-02,-7.616535294800996780e-03,-3.104443475604057312e-02,-4.691129550337791443e-02,
4.354959726333618164e-02,1.253522466868162155e-02,-3.643914312124252319e-02,2.969625219702720642e-02,1.473699696362018585e-02,-5.454686284065246582e-02,-5.366338882595300674e-03,-1.324311085045337677e-02,-2.100578509271144867e-02,5.052142962813377380e-02,-2.054773271083831787e-02,-7.869537174701690674e-02,7.400736212730407715e-02,-5.019841715693473816e-03,-6.066882237792015076e-02,2.016082033514976501e-02,1.185059640556573868e-02,-2.476205863058567047e-02,3.339026123285293579e-02,-2.492162026464939117e-02,-1.025302261114120483e-01,7.848617434501647949e-02,1.326395664364099503e-02,-7.721650600433349609e-02,4.779256135225296021e-02,1.261720526963472366e-02,-3.490929678082466125e-02,
5.340945348143577576e-02,3.170374035835266113e-02,3.439453244209289551e-02,1.653566211462020874e-02,-3.171595744788646698e-03,2.014926262199878693e-02,6.767940241843461990e-03,-5.559289455413818359e-02,-5.481885746121406555e-02,7.228965871036052704e-03,1.454272121191024780e-02,1.253545843064785004e-02,-4.439617320895195007e-02,-1.879269257187843323e-02,-1.821330934762954712e-02,-5.852479115128517151e-02,-8.371283859014511108e-02,-7.210543751716613770e-02,-3.270203992724418640e-02,-3.725877031683921814e-03,1.110734324902296066e-02,2.942539518699049950e-03,4.190509393811225891e-02,1.314432267099618912e-02,6.055295001715421677e-03,3.394409641623497009e-02,4.877306520938873291e-02,
-6.337073445320129395e-02,1.514099389314651489e-01,-4.898769780993461609e-02,-1.106514558196067810e-01,1.401910036802291870e-01,-9.582461416721343994e-02,-1.066729277372360229e-01,1.327495872974395752e-01,-7.394476979970932007e-02,-5.257907137274742126e-02,1.377781480550765991e-01,-4.911535605788230896e-02,-9.043253213167190552e-02,1.372404098510742188e-01,-7.310451567173004150e-02,-5.006969720125198364e-02,1.402279287576675415e-01,-4.527678713202476501e-02,-4.805497825145721436e-02,1.218900233507156372e-01,-6.598620116710662842e-02,-7.485227286815643311e-02,1.126888468861579895e-01,-9.188152104616165161e-02,-6.378630548715591431e-02,1.249793246388435364e-01,-5.512881651520729065e-02,
2.478686394169926643e-03,-7.286461535841226578e-03,7.907773368060588837e-03,-4.211933165788650513e-02,-8.158779144287109375e-02,-4.466351121664047241e-02,-5.834801867604255676e-02,-5.164250358939170837e-02,-3.845726326107978821e-02,-3.059558756649494171e-02,-1.591895148158073425e-02,-3.189947083592414856e-02,-2.564722904935479164e-03,1.482832524925470352e-02,3.999283071607351303e-03,3.158614272251725197e-03,1.205005915835499763e-03,-1.311551686376333237e-02,-1.033971086144447327e-02,5.870690941810607910e-02,7.897277362644672394e-03,6.644074618816375732e-02,1.181936264038085938e-01,7.501983642578125000e-02,4.964683577418327332e-02,9.844294935464859009e-02,4.142160341143608093e-02,
9.574689902365207672e-03,-3.590119257569313049e-02,3.606308624148368835e-02,-8.347558230161666870e-02,-1.138892769813537598e-01,-4.542510211467742920e-02,-2.136998623609542847e-02,-2.707183361053466797e-02,6.067754235118627548e-03,2.503634616732597351e-02,-2.704640477895736694e-02,-4.718504846096038818e-02,1.828732341527938843e-02,-2.331508323550224304e-03,-2.230445295572280884e-02,4.791321232914924622e-02,3.052038699388504028e-02,-3.173527866601943970e-02,1.694501191377639771e-02,1.801326870918273926e-02,-4.309099912643432617e-02,4.892453551292419434e-02,7.490836083889007568e-02,2.837264582922216505e-05,3.966048732399940491e-02,6.316503137350082397e-02,-8.348288945853710175e-03,
9.988172911107540131e-03,9.639129787683486938e-02,8.056432753801345825e-02,-7.158165425062179565e-02,2.002450451254844666e-02,1.043649241328239441e-01,-4.584433883428573608e-02,-6.409353762865066528e-02,1.076189707964658737e-02,-5.199187621474266052e-02,6.787671148777008057e-02,5.208975821733474731e-02,-1.007387414574623108e-01,-4.132615774869918823e-02,7.770517468452453613e-02,-3.881239145994186401e-02,-5.530947074294090271e-02,1.313081476837396622e-02,-7.449842523783445358e-03,7.774355262517929077e-02,3.365232795476913452e-02,-6.781756132841110229e-02,-2.290634671226143837e-03,5.526065826416015625e-02,-2.742520533502101898e-02,-6.836333125829696655e-02,8.639817126095294952e-03,
2.922471612691879272e-02,1.564707048237323761e-02,-4.677922464907169342e-03,4.198919236660003662e-02,2.915908582508563995e-02,-3.405700251460075378e-02,6.156266480684280396e-02,4.016218334436416626e-02,-2.704401686787605286e-02,-2.966005467897048220e-06,-2.360849454998970032e-02,-7.611299306154251099e-02,-3.172789001837372780e-03,-2.537988498806953430e-02,-9.540430456399917603e-02,1.835059747099876404e-02,-1.632403209805488586e-02,-9.589421004056930542e-02,5.139254033565521240e-02,5.801609531044960022e-02,-1.598839089274406433e-02,7.584939152002334595e-02,6.261185556650161743e-02,-3.951937705278396606e-02,6.058122217655181885e-02,7.024634629487991333e-02,-4.760712757706642151e-02,
4.356102272868156433e-02,3.967597335577011108e-02,1.824015565216541290e-02,-1.805775612592697144e-02,3.705548495054244995e-02,4.713251441717147827e-02,-5.659810081124305725e-02,5.118083581328392029e-02,6.096890196204185486e-02,-4.131447896361351013e-02,-4.434781149029731750e-02,-1.849058270454406738e-02,-8.736495673656463623e-02,-3.490791469812393188e-02,4.527590796351432800e-02,-1.006776690483093262e-01,-9.135089814662933350e-03,5.146927386522293091e-02,-1.045839861035346985e-02,-2.118836157023906708e-02,1.621874794363975525e-02,-7.299645245075225830e-02,-5.535445641726255417e-03,6.689381599426269531e-02,-1.000585481524467468e-01,3.701066598296165466e-02,6.654500216245651245e-02,
-5.201500654220581055e-02,-1.216823160648345947e-01,-9.064414352178573608e-02,-2.661305479705333710e-02,3.885370492935180664e-02,7.206764072179794312e-02,8.800598978996276855e-02,1.135784909129142761e-01,7.129398733377456665e-02,1.164196152240037918e-02,-5.103658512234687805e-02,-2.760219573974609375e-02,-4.170646890997886658e-02,5.782120395451784134e-03,2.914047800004482269e-02,1.206487044692039490e-02,4.532132297754287720e-02,-5.807171016931533813e-02,2.806423290167003870e-04,-4.181679710745811462e-02,1.551087480038404465e-02,-3.589159622788429260e-02,2.204541116952896118e-02,9.690787643194198608e-02,2.184196189045906067e-02,7.026293128728866577e-02,2.452685497701168060e-02,
-3.483435511589050293e-02,-4.996195435523986816e-02,1.011603027582168579e-01,7.441761344671249390e-02,-4.399484023451805115e-02,-4.650630429387092590e-02,-1.124564837664365768e-02,6.851784884929656982e-02,-9.083484858274459839e-02,-2.367692627012729645e-02,-4.596911743283271790e-02,9.148969501256942749e-02,6.986850500106811523e-02,-3.280721977353096008e-02,-2.683589793741703033e-02,8.705302141606807709e-03,7.950527966022491455e-02,-7.777427136898040771e-02,-3.225238993763923645e-02,-6.895273178815841675e-02,7.429320365190505981e-02,7.237825542688369751e-02,-3.291760385036468506e-02,-4.156466573476791382e-02,3.874491900205612183e-02,8.254443854093551636e-02,-8.356843143701553345e-02,
-6.537749618291854858e-02,-6.781341880559921265e-02,-1.538542956113815308e-01,2.150489576160907745e-02,5.242032185196876526e-02,-3.437780216336250305e-02,3.241271153092384338e-02,9.296190738677978516e-02,4.930057376623153687e-02,2.334994822740554810e-02,4.675075784325599670e-02,-3.202755376696586609e-02,2.909942530095577240e-02,7.349173724651336670e-02,-7.355993613600730896e-03,-6.118730083107948303e-02,2.155107632279396057e-02,-2.970522642135620117e-02,3.817489743232727051e-02,7.028907537460327148e-02,3.306630253791809082e-02,-2.591780573129653931e-02,6.124599650502204895e-02,2.317527495324611664e-02,-1.231163591146469116e-01,-1.997523196041584015e-02,-3.781551495194435120e-02,
8.362619578838348389e-02,-2.825349383056163788e-02,9.385183453559875488e-02,3.247318416833877563e-02,-8.139356225728988647e-02,2.895659208297729492e-02,2.396674826741218567e-02,-8.943469822406768799e-02,-2.973148971796035767e-02,3.016330115497112274e-02,-8.327681571245193481e-02,2.400710247457027435e-02,-1.037353556603193283e-02,-1.065512001514434814e-01,-1.369144674390554428e-02,4.809923842549324036e-02,-6.752508878707885742e-02,-2.692396752536296844e-02,1.368893217295408249e-02,-3.457617014646530151e-02,2.498437836766242981e-02,2.868198044598102570e-02,-3.853574022650718689e-02,4.713024571537971497e-02,8.420663326978683472e-02,1.573172397911548615e-02,4.156544432044029236e-02,
2.156591787934303284e-02,3.365912009030580521e-03,2.648264169692993164e-02,-6.019784137606620789e-02,-5.699171125888824463e-02,3.979878872632980347e-02,-3.830414637923240662e-02,-4.487468674778938293e-02,1.538894884288311005e-02,-3.014987520873546600e-02,-2.169598639011383057e-02,1.808074861764907837e-02,-4.020483791828155518e-02,-1.512011047452688217e-02,7.153005152940750122e-02,-1.561050582677125931e-02,1.149586401879787445e-03,4.842955991625785828e-02,-5.794160813093185425e-02,-2.515838667750358582e-02,5.199114605784416199e-02,-6.859706342220306396e-02,-1.259931270033121109e-02,7.931848615407943726e-02,-4.524450004100799561e-02,-1.565570197999477386e-02,6.581036746501922607e-02,
-3.158531337976455688e-02,-8.742504566907882690e-02,-5.332029983401298523e-02,5.856129899621009827e-02,-2.693525329232215881e-02,-8.101613819599151611e-02,8.726509660482406616e-02,1.101122945547103882e-01,5.541332066059112549e-02,6.329387426376342773e-03,-6.942962855100631714e-02,-7.569096237421035767e-02,3.658001497387886047e-02,-1.158311031758785248e-03,-8.800031989812850952e-02,5.774353072047233582e-02,6.478472054004669189e-02,6.026913877576589584e-03,5.080341547727584839e-02,-2.567121386528015137e-02,8.596483618021011353e-03,5.604354292154312134e-02,1.073342398740351200e-03,-5.313770845532417297e-02,1.491964329034090042e-02,5.945744365453720093e-02,-2.688721194863319397e-02,
-1.449285447597503662e-02,7.212350610643625259e-03,-1.137707103043794632e-02,2.209069207310676575e-02,2.249121665954589844e-02,-7.233330607414245605e-02,4.695216938853263855e-02,6.122979801148176193e-03,-6.454855948686599731e-02,1.007744111120700836e-03,1.467110496014356613e-02,-2.571391640231013298e-03,5.283106118440628052e-02,2.136273123323917389e-02,-6.337607651948928833e-02,5.554070323705673218e-02,2.458200976252555847e-02,-7.442331314086914062e-02,-7.171770092099905014e-03,-3.003131598234176636e-03,-2.521250955760478973e-02,6.352710723876953125e-02,1.427941676229238510e-02,-1.033554598689079285e-01,7.664804160594940186e-02,9.721510112285614014e-03,-8.427016437053680420e-02,
-4.533377289772033691e-02,-8.554949611425399780e-02,-3.233179822564125061e-02,-6.716475635766983032e-02,1.379598211497068405e-02,8.184175938367843628e-02,-4.679024685174226761e-03,7.177723199129104614e-02,6.274311989545822144e-02,-3.064137883484363556e-02,-1.044504046440124512e-01,1.994241029024124146e-02,-7.833342254161834717e-02,-5.831914395093917847e-02,4.862432554364204407e-02,-3.332288190722465515e-02,5.607196316123008728e-02,4.885652661323547363e-02,1.220502983778715134e-02,-1.482264231890439987e-02,5.976950377225875854e-02,-5.077199637889862061e-02,-2.298540249466896057e-02,6.163440272212028503e-02,-3.155263513326644897e-02,3.938772901892662048e-02,3.156834095716476440e-02,
-6.746985763311386108e-02,-9.057605266571044922e-02,7.931023836135864258e-03,6.780526041984558105e-02,1.433350741863250732e-01,7.320192456245422363e-02,-1.159102283418178558e-02,-2.259979769587516785e-02,-7.609537988901138306e-02,-4.814241081476211548e-02,-7.333182543516159058e-02,2.123687416315078735e-02,6.053331866860389709e-02,1.362934261560440063e-01,4.656164720654487610e-02,-3.703393042087554932e-02,-4.722463339567184448e-02,-1.004187762737274170e-01,-5.461052432656288147e-02,-6.054640933871269226e-02,4.089331254363059998e-03,4.984188824892044067e-02,8.935604989528656006e-02,5.187620967626571655e-02,-3.697937354445457458e-02,-2.841375023126602173e-02,-6.071566790342330933e-02,
};,
